<?xml version="1.0"?>
<opencv_storage>
<my_svm type_id="opencv-ml-svm">
  <svm_type>C_SVC</svm_type>
  <kernel><type>RBF</type>
    <gamma>8.9999999999999997e-002</gamma></kernel>
  <C>10.</C>
  <term_criteria><epsilon>1.1920928955078125e-007</epsilon>
    <iterations>2147483647</iterations></term_criteria>
  <var_all>324</var_all>
  <var_count>324</var_count>
  <class_count>12</class_count>
  <class_labels type_id="opencv-matrix">
    <rows>1</rows>
    <cols>12</cols>
    <dt>i</dt>
    <data>
      0 1 2 3 4 5 6 7 8 9 10 11</data></class_labels>
  <sv_total>56</sv_total>
  <support_vectors>
    <_>
      2.83470243e-001 1.35155246e-001 1.60010919e-001 1.67911470e-001
      5.75890280e-002 7.58942100e-004 1.73379201e-003 1.50008709e-003
      2.83470243e-001 2.83470243e-001 4.85333055e-002 1.00902103e-001
      3.00324243e-002 8.04194529e-003 9.47535620e-004 3.80258895e-002
      3.71359959e-002 2.83470243e-001 2.40979850e-001 1.74289078e-001
      2.83470243e-001 1.76160231e-001 2.83470243e-001 5.80962077e-002
      3.69116920e-003 2.00231723e-003 1.67008847e-001 2.83470243e-001
      1.20229185e-001 2.55975991e-001 5.06301597e-002 1.22634172e-001
      2.25983169e-002 8.24132934e-002 8.34197998e-002 2.83470243e-001
      3.48307371e-001 5.63380262e-003 1.21582868e-002 1.07007439e-003
      2.67438311e-003 9.76942596e-004 4.00685333e-002 4.58926819e-002
      3.48307371e-001 3.48307371e-001 1.58494357e-002 1.43009154e-002
      1.10540830e-003 2.86684302e-003 7.42245407e-004 5.00502950e-003
      9.41616297e-003 3.48307371e-001 3.48307371e-001 1.47366263e-002
      2.90076993e-002 2.49463110e-003 5.77097153e-003 2.22722511e-003
      8.79269689e-002 1.01837881e-001 3.48307371e-001 3.48307371e-001
      2.73735933e-002 3.19466814e-002 1.96337164e-003 6.72922377e-003
      1.78828347e-003 1.05485003e-002 1.88948326e-002 3.48307371e-001
      3.04697245e-001 3.63096260e-002 4.53274027e-002 7.43079232e-004
      3.21336165e-002 2.77004242e-002 3.66567075e-002 1.97976045e-002
      3.04697245e-001 3.04697245e-001 1.99604183e-002 2.98244506e-002
      1.43907720e-003 1.63882419e-001 1.73474789e-001 1.32460684e-001
      1.34592667e-001 3.04697245e-001 3.04697245e-001 7.16237947e-002
      9.91931185e-002 3.22399777e-003 2.25611731e-001 1.74952410e-002
      4.32667136e-002 1.97796505e-002 3.04697245e-001 2.62706757e-001
      4.06627767e-002 6.47230074e-002 1.29529936e-002 3.04697245e-001
      1.12757817e-001 1.13890596e-001 1.14808381e-001 2.52824485e-001
      8.05115476e-002 5.03255799e-002 1.39235750e-001 1.53522164e-001
      2.77332187e-001 1.96360752e-001 3.58245373e-002 1.62840839e-002
      8.40989873e-002 2.48262689e-001 6.02275133e-002 1.27408415e-001
      6.56452477e-002 2.49507710e-001 7.38691464e-002 2.72202194e-002
      2.77669597e-002 2.45675221e-001 2.04186007e-001 4.73482423e-002
      9.88467559e-002 1.56545579e-001 2.77332187e-001 2.77332187e-001
      2.14037731e-001 1.59505635e-001 2.77332187e-001 2.77332187e-001
      8.55822191e-002 1.51041448e-001 6.93916604e-002 1.56582773e-001
      8.23679194e-002 6.24326877e-002 3.99862789e-002 2.77332187e-001
      3.52126479e-001 1.13253957e-002 1.83717906e-002 2.07479042e-003
      8.88649002e-003 2.52729491e-003 2.70851459e-002 3.18198577e-002
      3.52126479e-001 3.52126479e-001 1.02325603e-002 1.35976169e-002
      2.49687932e-003 9.75007098e-003 2.68040644e-003 5.23888785e-003
      6.64185779e-003 3.52126479e-001 3.52126479e-001 2.13591866e-002
      3.22502777e-002 4.42198449e-004 8.23362824e-003 2.76327808e-003
      9.48866457e-003 5.19336294e-003 3.52126479e-001 3.52126479e-001
      1.98748196e-003 3.45425680e-003 7.08833104e-004 7.19934609e-003
      2.17097229e-003 1.70562405e-003 1.22628710e-003 3.52126479e-001
      2.86992818e-001 2.52379719e-002 4.55219597e-002 5.20573417e-003
      3.13212544e-001 3.94885847e-003 1.21929720e-002 4.88885166e-003
      2.72027314e-001 1.24072760e-001 2.60439850e-002 5.72960824e-002
      2.19580270e-002 3.42051476e-001 2.25121081e-002 2.34161336e-002
      1.20226815e-002 1.06619909e-001 3.42051476e-001 1.79326702e-002
      4.67683934e-002 2.90436251e-003 1.48411050e-001 3.06358165e-003
      1.98529498e-003 1.20450079e-003 3.42051476e-001 2.56648004e-001
      1.92386210e-001 2.13094249e-001 6.16408400e-002 3.42051476e-001
      1.43836075e-002 3.85690620e-003 2.55466788e-003 2.48826742e-001
      2.42732689e-001 2.21954603e-002 4.52195816e-002 3.68670113e-002
      1.89224228e-001 2.45286465e-001 2.99994618e-001 2.11547479e-001
      2.99994618e-001 2.99994618e-001 1.11318715e-001 7.05647469e-002
      1.58809256e-002 3.98857035e-002 5.42367026e-002 2.03591883e-001
      1.32683292e-001 2.99994618e-001 9.72421765e-002 4.17866831e-004
      1.60712341e-004 4.01824247e-004 4.43971455e-002 4.17162888e-002
      1.39646351e-001 6.55088127e-002 2.99994618e-001 2.99994618e-001
      9.50961262e-002 1.65887340e-003 2.84520676e-003 1.30264349e-002
      1.27058830e-002 1.51814297e-001 1.13500074e-001 2.99994618e-001
      3.43856961e-001 1.04046606e-001 1.21603347e-002 4.09557069e-005
      8.14960804e-003 3.11379507e-003 3.20986398e-002 8.21462199e-002
      3.43856961e-001 3.43856961e-001 1.83498207e-002 5.86486072e-004
      1.86162288e-005 5.32840565e-003 1.66697951e-003 8.14709230e-004
      3.94777358e-002 3.43856961e-001 3.43856961e-001 1.27852768e-001
      2.66960892e-003 4.36082389e-003 7.48873642e-003 2.12606438e-003
      2.72370894e-002 9.80449542e-002 3.43856961e-001 3.43856961e-001
      2.41238941e-002 1.12936099e-003 1.30975258e-003 3.18863569e-003
      4.63880977e-004 1.02789549e-003 5.02405241e-002 3.43856961e-001
      3.05518627e-001 4.01908495e-002 3.92431207e-002 7.47246377e-004
      2.34296583e-002 3.19933426e-003 1.51056226e-003 1.16925477e-003
      3.05518627e-001 3.05518627e-001 3.05518627e-001 3.05518627e-001
      8.85231867e-002 2.21724719e-001 8.93768854e-003 3.69488611e-003
      3.26633058e-003 2.76873469e-001 3.05518627e-001 3.55682336e-002
      1.98116750e-002 3.96950956e-004 4.96770861e-003 1.29700603e-003
      4.73766442e-004 1.15235208e-003 3.05518627e-001 3.05518627e-001
      1.72837794e-001 1.88827291e-001 2.53803302e-002 5.00732102e-002
      4.51523252e-003 2.05503521e-003 4.60964767e-003 2.05724031e-001</_>
    <_>
      3.46014231e-001 4.66493815e-002 3.34048122e-002 2.37941947e-002
      1.45988921e-002 2.36204220e-003 2.56723701e-003 3.55326408e-003
      3.46014231e-001 3.46014231e-001 6.38067198e-004 1.79734884e-003
      9.09412629e-004 3.21982312e-003 5.88793599e-004 1.60351151e-003
      1.50450075e-003 3.46014231e-001 3.46014231e-001 3.59890126e-002
      2.86956541e-002 4.90267389e-002 1.72442153e-001 1.81461293e-002
      8.81530344e-004 4.30042716e-003 3.46014231e-001 3.46014231e-001
      4.49516054e-004 7.41007389e-004 4.01308847e-004 3.37489438e-003
      4.45214246e-005 4.99698974e-004 4.83364420e-004 3.46014231e-001
      3.52928251e-001 3.58683377e-004 1.21235650e-003 1.31348686e-004
      1.22809003e-003 0. 3.78845521e-004 1.26603569e-004 3.52928251e-001
      3.52928251e-001 8.73772369e-004 7.18553027e-004 0. 2.87166797e-004
      7.80034406e-006 1.47370491e-004 4.79743030e-005 3.52928251e-001
      3.52928251e-001 9.81708436e-005 3.00206710e-004 2.97406291e-006
      1.88037171e-004 0. 5.13253726e-005 1.71520605e-005 3.52928251e-001
      3.52928251e-001 1.43260625e-003 1.15469033e-004 0. 1.37406256e-004
      1.17005169e-004 6.67722416e-005 3.19828678e-006 3.52928251e-001
      3.24375838e-001 5.84436720e-003 2.85951013e-004 4.92567451e-005
      2.20432947e-003 8.25623225e-004 1.97553542e-003 9.28101502e-003
      3.24375838e-001 3.24375838e-001 1.52947512e-002 4.52190079e-003
      2.24034046e-003 6.86887875e-002 5.43194041e-002 5.50310127e-002
      9.47842374e-002 3.24375838e-001 3.24375838e-001 9.93497297e-003
      5.50719735e-004 1.47746189e-003 1.63929611e-002 1.77377579e-003
      4.33980720e-003 1.35609563e-002 3.24375838e-001 3.24375838e-001
      2.01535616e-002 3.27980868e-003 2.21674573e-002 3.24375838e-001
      1.29658744e-001 5.73114902e-002 9.01738703e-002 3.24375838e-001
      1.90845981e-001 2.42960099e-002 2.19674911e-002 9.04625878e-002
      3.32269490e-001 1.18095443e-001 5.28479926e-002 3.03699393e-002
      1.73742175e-001 2.28545457e-001 1.82857644e-003 1.55714003e-003
      8.49887088e-004 8.50649178e-003 2.58468062e-004 2.76376167e-003
      1.34423783e-003 2.30344981e-001 3.32269490e-001 1.67469516e-001
      9.61037278e-002 6.78964630e-002 3.32269490e-001 1.57511041e-001
      1.43381715e-001 1.74206764e-001 3.32269490e-001 3.32269490e-001
      4.45175059e-002 2.63594068e-003 2.71389057e-004 6.61864970e-003
      5.68629766e-004 4.13421867e-003 1.25288889e-001 3.32269490e-001
      2.51717627e-001 1.34352129e-003 5.81242610e-004 0. 9.72839538e-004
      5.37746702e-004 1.89947418e-003 5.46917028e-004 2.51656979e-001
      2.89125949e-001 1.15459540e-003 1.61266667e-004 0. 6.44372893e-004
      5.88281720e-004 7.71129504e-004 1.61587057e-004 2.84859389e-001
      4.19560403e-001 3.96583090e-003 1.72732596e-003 0. 1.67396420e-003
      1.18304265e-003 3.86573072e-003 1.40901981e-002 4.19560403e-001
      4.19560403e-001 1.41972827e-003 7.38394330e-004 0. 4.81593597e-004
      9.20144317e-004 1.75085780e-003 4.53298097e-004 4.19560403e-001
      1.42095625e-001 3.40830232e-003 1.74963055e-003 3.12134670e-003
      3.14631686e-002 1.76613196e-003 2.00063293e-003 3.73833394e-003
      1.24976583e-001 1.10388078e-001 6.82472670e-003 5.13047772e-003
      5.07508069e-002 3.91459674e-001 8.03263187e-002 1.78712141e-002
      2.46479809e-002 8.46814811e-002 3.91459674e-001 3.80213233e-003
      5.61884558e-003 1.58791849e-003 2.76464503e-002 1.70627562e-003
      6.67727843e-004 4.16341325e-004 3.91459674e-001 3.91459674e-001
      7.15944469e-002 8.55960771e-002 1.22176543e-001 3.91459674e-001
      4.10802923e-002 2.12774472e-003 1.48852728e-003 3.65739644e-001
      3.46426666e-001 1.00440018e-001 2.86372602e-002 4.09427285e-003
      7.93973133e-002 2.43884530e-002 2.71632597e-002 1.00246310e-001
      3.46426666e-001 3.46426666e-001 2.62425859e-002 5.13630803e-004
      5.64594666e-005 9.15433862e-004 6.44797910e-005 7.46671227e-004
      7.99391940e-002 3.46426666e-001 3.46426666e-001 1.59665402e-002
      1.67561186e-004 0. 2.85909395e-003 5.08759287e-004 2.56713526e-003
      1.77090112e-002 3.46426666e-001 3.46426666e-001 3.68219987e-003
      1.45969738e-004 2.20376009e-004 4.69108461e-004 0. 3.41010600e-004
      1.25766238e-002 3.46426666e-001 3.51320595e-001 5.47793461e-004
      9.44342813e-004 4.25917591e-004 5.37454325e-004 1.11223861e-004
      9.87818348e-004 5.70867723e-003 3.51320595e-001 3.51320595e-001
      4.91855433e-004 1.06413546e-003 6.85659586e-004 1.64957205e-003
      2.25462369e-004 1.25647790e-003 1.21145684e-003 3.51320595e-001
      3.51320595e-001 7.67715610e-005 1.25397777e-003 1.66092673e-003
      1.75737904e-003 2.04791766e-004 6.99556142e-004 9.65772779e-004
      3.51320595e-001 3.51320595e-001 9.48119834e-002 2.09724042e-003
      2.60647875e-003 4.14675381e-003 1.09638146e-003 2.17989506e-003
      2.24553049e-003 3.51320595e-001 3.31553429e-001 3.48982168e-003
      3.76713579e-003 8.60789034e-004 7.55205192e-003 5.65266295e-004
      8.17128341e-004 1.26681000e-003 3.31553429e-001 3.31553429e-001
      6.61101043e-002 6.88552186e-002 6.67290613e-002 2.50689507e-001
      9.17084981e-003 1.47998321e-003 4.92692576e-004 3.31553429e-001
      3.31553429e-001 1.23009391e-001 1.88433810e-003 2.48015462e-003
      5.20789577e-003 1.14980922e-003 1.50816888e-003 5.27685396e-002
      3.31553429e-001 3.31553429e-001 3.10861748e-002 9.96079948e-003
      7.50342011e-003 1.02893431e-002 1.05180021e-003 1.24841998e-003
      1.46615729e-001 3.31553429e-001</_>
    <_>
      8.97788033e-002 1.95157006e-002 5.60960993e-002 3.48361046e-003
      7.65526146e-002 9.48691857e-004 2.51040492e-005 9.60908714e-004
      8.61551166e-002 7.51820579e-002 1.21522127e-002 3.21037211e-002
      1.98115292e-003 7.34161809e-002 2.42148736e-003 6.63215687e-005
      5.78269246e-004 7.09559098e-002 3.22893351e-001 2.99104452e-001
      3.22893351e-001 1.94027927e-002 3.22893351e-001 5.23453765e-003
      6.42283782e-002 2.45189294e-002 3.22893351e-001 3.22893351e-001
      1.51233539e-001 3.22893351e-001 1.10572241e-002 3.22893351e-001
      8.29068385e-003 4.97713536e-002 2.02219877e-002 3.22893351e-001
      2.48663351e-002 2.51463917e-003 5.27466554e-003 1.13248255e-003
      4.34275158e-002 3.75664164e-003 8.72284290e-004 2.77031213e-003
      2.07192861e-002 6.42555300e-003 1.92142790e-004 6.05405367e-004
      1.40529328e-005 6.31986558e-003 4.47639119e-004 7.27286504e-004
      1.42428500e-003 6.37825020e-003 4.89517450e-001 2.80433260e-002
      6.55182749e-002 7.04390183e-003 1.67173237e-001 9.57995094e-003
      1.15249550e-003 1.04816090e-002 4.89517450e-001 4.89517450e-001
      6.66944194e-004 1.84914435e-003 2.10793980e-004 1.36919385e-002
      1.27342262e-003 1.60493096e-003 3.28684971e-003 4.89517450e-001
      1.71103934e-003 5.65003545e-004 1.73924305e-003 5.28430101e-004
      2.18923017e-002 3.84000683e-004 1.80116418e-004 6.67166372e-004
      1.84928381e-003 1.40731856e-001 2.72546969e-002 9.84921455e-002
      1.07245408e-002 3.76865864e-001 3.15847690e-003 3.64052355e-002
      1.35706794e-002 1.43663228e-001 3.84588301e-001 3.14860255e-003
      8.52198899e-003 1.22747477e-003 5.69407716e-002 1.90108537e-003
      1.76592416e-003 6.86553074e-004 3.84588301e-001 3.84588301e-001
      6.95626959e-002 2.22298279e-001 2.92289443e-002 3.84588301e-001
      2.10773349e-002 4.88640442e-002 1.73644666e-002 3.84588301e-001
      3.09342474e-001 1.35400370e-001 3.09342474e-001 8.69396329e-003
      2.55408734e-001 2.39062542e-003 5.97670376e-002 2.15915181e-002
      3.09342474e-001 3.09342474e-001 5.06497137e-002 1.43422231e-001
      4.48985025e-003 1.17806524e-001 1.75613759e-003 4.10395116e-002
      1.60753820e-002 3.09342474e-001 3.09342474e-001 2.64397487e-002
      7.27465004e-002 2.06514401e-003 4.19069342e-002 1.87320798e-003
      2.97094733e-002 1.24457302e-002 3.09342474e-001 3.09342474e-001
      1.92939024e-003 3.94968456e-003 8.60272732e-004 8.53312761e-003
      4.83111013e-004 9.93089285e-003 4.89434414e-003 3.09342474e-001
      3.52890462e-001 3.37196328e-003 7.25159841e-003 7.93248008e-004
      1.22297071e-002 4.52093314e-004 5.20548929e-005 1.49005803e-003
      3.52890462e-001 3.52890462e-001 6.06328176e-005 1.23003076e-004
      2.28978915e-005 1.57753588e-003 7.41121548e-005 1.00727491e-004
      2.37074186e-004 3.52890462e-001 3.52890462e-001 1.03205741e-004
      8.99603401e-005 7.65196746e-005 8.80388601e-004 0. 1.93447704e-005
      7.81107985e-004 3.52890462e-001 3.52890462e-001 2.91603237e-006
      1.06956686e-004 4.86727404e-005 4.81198047e-004 0. 0.
      8.02877184e-005 3.52890462e-001 3.13051790e-001 1.81305641e-003
      4.99905692e-003 3.24386230e-004 1.15861427e-002 3.86429514e-004
      1.65188161e-003 4.69890772e-004 3.13051790e-001 3.13051790e-001
      2.59219892e-002 7.51377121e-002 6.83696568e-003 3.13051790e-001
      5.10221999e-003 2.14188583e-002 7.73680722e-003 3.13051790e-001
      3.13051790e-001 1.22575532e-003 2.07888358e-003 1.69307250e-003
      1.55418469e-002 1.59482443e-004 5.21183945e-003 1.83245377e-003
      3.13051790e-001 3.13051790e-001 8.24568141e-003 2.26026215e-002
      1.03053525e-002 3.13051790e-001 5.92164043e-003 8.82115290e-002
      3.16384360e-002 3.13051790e-001 4.96970952e-001 2.52563506e-002
      2.03320850e-002 4.93962364e-003 2.35826969e-002 1.25321588e-002
      5.64456880e-002 3.15743797e-002 4.96970952e-001 4.96970952e-001
      6.45877328e-003 9.80590703e-004 3.44637223e-003 1.08064199e-002
      1.17385352e-003 4.87308903e-003 4.39492287e-003 4.96970952e-001
      1.75601561e-002 7.36987265e-003 2.38687871e-003 3.44637223e-003
      6.99465442e-003 4.86515975e-003 6.85013877e-003 3.51647800e-003
      1.53642623e-002 8.82112235e-003 2.68238084e-003 5.50818222e-004
      2.68051191e-003 3.89611279e-003 6.15478930e-005 1.38365210e-003
      6.49551104e-004 8.37283023e-003 4.98697132e-001 4.35506518e-004 0.
      0. 4.75351466e-004 0. 0. 4.08162217e-004 4.98697132e-001
      4.98697132e-001 0. 8.68631992e-004 4.01000434e-004 1.53854873e-003
      0. 0. 0. 4.98697132e-001 6.63381396e-003 1.97957488e-004 0. 0.
      1.09696499e-004 0. 0. 2.72108118e-005 6.59843348e-003
      7.67069729e-003 0. 5.79088082e-005 2.67333653e-005 3.84678249e-003
      0. 0. 0. 7.67069729e-003 3.68291795e-001 3.09775840e-003
      2.82922061e-003 3.70429992e-003 5.98600246e-002 8.69950862e-004
      5.58712473e-003 1.93222798e-003 3.72038990e-001 3.81458133e-001
      2.11899541e-002 6.23654500e-002 2.68890411e-002 3.81458133e-001
      1.79306511e-002 2.16665462e-001 7.79370666e-002 3.81458133e-001
      2.93652341e-003 9.73650080e-004 1.85060780e-003 5.08046593e-004
      2.50527281e-002 5.58706932e-004 1.62262016e-003 5.02044044e-004
      3.32200923e-003 1.74606279e-001 1.43304849e-002 4.92249131e-002
      6.97089080e-003 3.81458133e-001 5.53500885e-003 1.10439941e-001
      3.97399664e-002 1.74408332e-001</_>
    <_>
      1.32690044e-002 6.36422657e-004 1.63669093e-003 2.05262983e-003
      9.04813968e-003 1.60434155e-003 5.02972957e-003 8.98362324e-003
      9.27170273e-003 1.23818964e-002 5.18414949e-004 1.55129330e-003
      9.33013565e-004 6.20741723e-003 1.86094578e-004 1.37793645e-003
      1.82235008e-003 8.41724314e-003 3.69457006e-001 8.40829313e-002
      2.54336536e-001 1.09923277e-002 2.12997288e-001 2.20600422e-002
      3.69457006e-001 2.71845281e-001 3.69457006e-001 3.69457006e-001
      2.89139198e-003 9.38344281e-003 3.47856828e-003 1.89041253e-002
      2.79141869e-003 3.28634888e-001 1.13923065e-001 3.69457006e-001
      6.19497802e-003 3.03339795e-004 9.07705748e-004 0. 5.26408153e-003
      0. 1.84269529e-003 6.15797995e-004 6.19497802e-003 3.73426825e-004
      5.13367740e-005 1.53618617e-004 0. 3.84866563e-003 0.
      4.06169653e-004 1.35735099e-004 3.73426825e-004 4.98606771e-001
      1.75214559e-003 5.24307555e-003 0. 1.67277157e-002 0.
      8.50188173e-003 2.84118671e-003 4.98606771e-001 4.98606771e-001
      2.22459363e-004 6.65680738e-004 0. 7.66738271e-003 0.
      3.11344489e-003 1.04046112e-003 4.98606771e-001 3.81318829e-003
      1.08391250e-004 7.00601260e-004 1.35045091e-003 1.55670363e-002
      1.95167682e-004 1.59356743e-003 5.32542414e-004 3.38469399e-003
      2.05861311e-002 2.21210090e-003 6.14485005e-003 4.97181155e-003
      2.27703378e-002 4.29368898e-004 6.42049825e-003 2.14562123e-003
      1.77497957e-002 4.05256659e-001 3.12983990e-003 2.30826717e-003
      3.48225865e-003 2.89877113e-002 3.76889389e-003 1.25418976e-003
      4.19128570e-004 4.05256659e-001 4.05256659e-001 1.37462124e-001
      3.68931293e-001 2.39099395e-002 4.05256659e-001 3.01492251e-002
      1.19112380e-001 3.98053676e-002 4.05256659e-001 3.32352400e-001
      2.82964688e-002 8.51718411e-002 2.16487446e-003 7.59823546e-002
      3.51949781e-003 2.48005047e-001 8.50700811e-002 3.32352400e-001
      3.32352400e-001 3.87343724e-004 1.20475236e-003 3.11785756e-004
      1.74427987e-003 2.70026940e-004 1.13029748e-001 3.88589241e-002
      3.32352400e-001 3.32352400e-001 1.20350011e-002 3.37153673e-002
      1.02234748e-003 3.82657312e-002 2.04309518e-003 1.00194670e-001
      3.65924388e-002 3.32352400e-001 3.32352400e-001 3.13326193e-004
      2.68020784e-004 1.18356584e-004 9.40444996e-004 4.89478589e-005
      4.21642028e-002 1.50722815e-002 3.32352400e-001 3.52929085e-001
      9.86614687e-005 2.95232283e-004 0. 1.07739819e-003 0.
      6.71361224e-004 2.24357675e-004 3.52929085e-001 3.52929085e-001
      7.65024015e-006 2.28923473e-005 0. 6.15737808e-004 0.
      3.11580836e-004 1.04125109e-004 3.52929085e-001 3.52929085e-001
      2.36180513e-005 1.61942662e-005 0. 2.22092247e-004 0.
      7.56741865e-005 7.16713548e-005 3.52929085e-001 3.52929085e-001 0.
      5.87603899e-005 1.20193406e-004 3.74308118e-004 0. 7.97992980e-005
      2.66675615e-005 3.52929085e-001 3.34409088e-001 3.78573255e-004
      1.25339400e-004 1.25715131e-004 2.96073547e-003 6.09930372e-004
      2.15214051e-004 9.49344849e-006 3.34409088e-001 3.34409088e-001
      3.42984498e-002 9.48280171e-002 3.53500922e-003 1.66375205e-001
      7.03090895e-003 4.05609757e-002 1.35873500e-002 3.34409088e-001
      3.34409088e-001 5.18142362e-004 5.40226873e-004 5.80881955e-004
      1.68925151e-003 3.47839465e-004 1.19161862e-003 6.07570517e-004
      3.34409088e-001 3.34409088e-001 2.00915337e-002 5.96986972e-002
      8.63087457e-003 2.09286764e-001 3.00365989e-003 1.12916656e-001
      4.08023670e-002 3.34409088e-001 4.96936142e-001 1.47612365e-002
      6.84566936e-003 4.94453404e-003 2.85786986e-002 1.39891123e-002
      6.18771985e-002 3.37182283e-002 4.96936142e-001 4.96936142e-001
      5.24606928e-003 1.56810950e-003 3.44979786e-003 7.61461630e-003
      6.74632378e-004 5.63076558e-003 4.83738445e-003 4.96936142e-001
      1.66618582e-002 7.10852258e-003 2.56442651e-003 3.44979786e-003
      4.44983738e-003 5.25870267e-003 7.50055257e-003 3.84935527e-003
      1.43781528e-002 8.42631143e-003 2.62304489e-003 5.91790769e-004
      2.68317643e-003 2.88550043e-003 1.55684393e-004 1.47390750e-003
      6.71513029e-004 7.97186513e-003 4.98699158e-001 4.35679569e-004 0.
      0. 4.75540350e-004 0. 0. 4.08324384e-004 4.98699158e-001
      4.98699158e-001 0. 5.17294218e-004 1.05811690e-003 2.24734773e-003
      0. 7.96839071e-004 2.66289600e-004 4.98699158e-001 6.63645007e-003
      1.98036156e-004 0. 0. 1.09740082e-004 0. 0. 2.72216257e-005
      6.60105515e-003 7.50289438e-003 0. 3.44862856e-005 7.05411294e-005
      2.79066875e-003 0. 3.62199557e-004 1.21040735e-004 7.50289438e-003
      4.07640696e-001 3.10616405e-003 3.40344664e-003 4.46424773e-003
      9.83510166e-003 8.49645759e-004 1.22944731e-002 5.51438611e-003
      4.07640696e-001 4.07640696e-001 3.84177007e-002 1.14413708e-001
      3.18777114e-002 4.07640696e-001 3.11646261e-003 3.56980890e-001
      1.33651152e-001 4.07640696e-001 3.95192252e-003 4.99666610e-004
      6.44773361e-004 6.45907247e-004 1.38221607e-002 2.68735515e-004
      4.27394826e-003 1.24968251e-003 5.57249086e-003 2.08335370e-002
      3.29587748e-003 4.54537850e-003 6.06589252e-003 4.91948202e-002
      9.21266561e-004 7.95514230e-003 2.47947592e-003 2.47228146e-002</_>
    <_>
      9.91803128e-003 5.34348516e-003 1.88290328e-003 2.17830855e-003
      1.27693014e-002 0. 2.31693895e-003 2.45226338e-003 1.09435227e-002
      1.10573666e-002 5.90278441e-003 2.38570012e-003 3.79286404e-003
      1.81386340e-002 4.54445799e-005 1.39858364e-003 1.76505535e-003
      1.07058827e-002 3.57410520e-001 2.26844788e-001 3.57410520e-001
      2.59917453e-002 2.12648869e-001 6.53725192e-002 3.10801603e-002
      9.80040804e-002 3.57410520e-001 3.57410520e-001 9.35282856e-002
      1.13697164e-001 2.31695138e-002 2.29409784e-001 2.62571126e-001
      1.19180463e-001 2.94068873e-001 3.57410520e-001 1.65320765e-002
      3.37256840e-003 5.40787680e-003 3.48984008e-003 2.39516646e-002
      4.31303546e-004 4.95477673e-003 3.26133240e-003 1.62005555e-002
      1.62929893e-002 9.09478404e-003 6.20419439e-003 3.85993696e-003
      1.87865999e-002 2.98341550e-003 1.12457350e-002 5.12470864e-003
      1.79612599e-002 4.00354356e-001 8.33208188e-002 1.69585999e-002
      3.39322612e-002 2.36129791e-001 2.20986277e-001 1.08207643e-001
      2.37773985e-001 4.00354356e-001 4.00354356e-001 4.00354356e-001
      3.19379158e-002 2.90236231e-002 6.90796152e-002 2.80845482e-002
      4.80334200e-002 3.45948860e-002 4.00354356e-001 8.60847905e-003
      5.57384314e-003 1.64555921e-003 8.82082910e-004 1.27353743e-002
      4.94990963e-003 1.08043039e-002 4.50847391e-003 1.04129640e-002
      1.30096562e-002 1.26053067e-003 2.29296112e-003 0. 1.77619103e-002
      5.85300662e-003 1.11802621e-002 1.04509043e-002 1.54456785e-002
      4.61726159e-001 2.92744517e-001 2.03099623e-002 9.11669526e-003
      4.46593054e-002 3.06311585e-002 3.55384760e-002 2.12097690e-002
      4.61726159e-001 4.61726159e-001 1.79514661e-001 2.02103332e-002
      3.42458952e-003 6.27941638e-002 3.54322158e-002 9.65085104e-002
      5.55500872e-002 4.61726159e-001 2.66234308e-001 1.02650188e-001
      2.31848493e-001 1.11160036e-002 1.49445608e-001 2.95321457e-002
      1.27111888e-002 3.71817462e-002 2.69873977e-001 3.06936711e-001
      3.33191380e-002 5.04975021e-002 4.04827623e-003 9.61714834e-002
      1.20820999e-001 5.47142141e-002 1.37680069e-001 3.06936711e-001
      3.06936711e-001 2.01872572e-001 1.83726817e-001 8.82342551e-003
      1.53551385e-001 1.77321173e-002 1.34007866e-002 3.25995386e-002
      3.06936711e-001 3.06936711e-001 1.74864978e-001 3.13131735e-002
      2.39542383e-003 6.67874068e-002 7.26027712e-002 3.35644037e-002
      8.47311690e-002 3.06936711e-001 3.17109704e-001 2.50215847e-002
      5.01428323e-004 1.77744904e-003 2.98886560e-002 3.88616659e-002
      1.80514473e-002 4.87664007e-002 3.18782628e-001 3.28009039e-001
      1.34007901e-001 1.62766862e-003 1.67260913e-003 2.61881505e-003
      1.25448080e-003 1.85980741e-003 1.31976698e-003 3.28009039e-001
      3.28009039e-001 1.54734820e-001 6.88636559e-004 5.40891604e-004
      1.62783843e-002 2.28902996e-002 1.09006613e-002 3.37541923e-002
      3.28009039e-001 3.28009039e-001 3.15107644e-001 5.97891631e-004
      4.06694249e-004 1.89428765e-003 9.03671753e-005 4.00682038e-004
      3.62504332e-004 3.28009039e-001 3.37789208e-001 1.17323644e-001
      1.97525905e-003 1.03208411e-003 2.07342720e-003 1.97157194e-003
      1.67429575e-003 1.14437263e-003 3.35331500e-001 3.37789208e-001
      9.62364301e-002 5.99441538e-003 8.88098404e-003 1.88073218e-002
      2.36880872e-003 2.35167965e-002 9.09556728e-003 3.37789208e-001
      3.37789208e-001 1.65082827e-001 7.63398770e-004 5.19414549e-004
      1.12638122e-003 4.24269354e-004 6.83673075e-004 2.11971957e-004
      3.37789208e-001 3.37789208e-001 1.80997387e-001 9.74706188e-003
      1.86303090e-002 2.28043683e-002 5.75714512e-004 1.73005760e-002
      6.03910442e-003 3.37789208e-001 4.15899485e-001 3.38573575e-001
      3.25259008e-002 2.35610153e-003 4.95952554e-002 1.92298368e-003
      1.37813743e-002 3.42222713e-002 4.15899485e-001 4.15899485e-001
      3.81324559e-001 4.12657205e-003 2.18403898e-003 1.08351847e-002
      4.43765457e-004 8.54407786e-004 1.66131626e-003 4.15899485e-001
      1.28769517e-001 2.20323931e-002 7.24790210e-004 7.74212764e-004
      1.97975361e-003 8.74083489e-004 9.18758276e-004 2.24619452e-003
      1.08093485e-001 7.37562552e-002 2.51261257e-002 7.24810758e-004
      8.34046514e-004 2.35268101e-003 2.01711562e-004 3.88367218e-004
      9.27322370e-004 6.35811388e-002 4.19143200e-001 3.35734665e-001
      4.48788796e-003 1.65330677e-003 5.91384387e-003 0. 1.68541493e-003
      2.14707456e-003 4.19143200e-001 4.19143200e-001 4.19143200e-001
      2.29823287e-003 6.82524871e-004 8.37751292e-003 0. 4.29903914e-004
      3.87725740e-004 4.19143200e-001 4.37049679e-002 7.80093856e-003
      1.72126654e-003 5.61628141e-004 2.19451636e-003 0. 7.66097743e-004
      1.21022901e-003 4.15543132e-002 2.06248332e-002 1.80520379e-004
      1.18478830e-003 2.97580234e-004 3.25138099e-003 0. 1.76791800e-004
      1.22694881e-004 2.00764835e-002 4.69722033e-001 2.22768173e-001
      2.33725621e-003 4.20276279e-004 9.88501217e-003 1.79464393e-003
      4.08636872e-003 1.25733626e-004 4.69722033e-001 4.69722033e-001
      2.45646670e-001 1.66625269e-002 2.10267976e-002 3.89172062e-002
      2.30739941e-003 5.21888677e-003 1.15714280e-003 4.69722033e-001
      7.27421278e-003 5.90443786e-004 1.10079977e-003 0. 3.99762345e-003
      5.45358285e-004 2.54264101e-003 0. 6.09455211e-003 9.03249718e-003
      1.89737347e-003 4.21238504e-003 0. 1.04663940e-002 7.01174897e-004
      3.26911011e-003 2.62903952e-004 7.45693175e-003</_>
    <_>
      8.37333500e-002 4.56504636e-002 1.28157437e-001 4.92695428e-004
      2.18919627e-002 1.65107544e-003 2.89742611e-002 1.05861472e-002
      8.29534233e-002 8.11204687e-002 2.75673531e-002 7.41813406e-002
      1.68005924e-003 6.19273074e-002 1.34851492e-003 5.78775890e-002
      2.14479528e-002 8.04562643e-002 2.70562947e-001 3.44293565e-001
      3.44293565e-001 2.73493514e-003 1.86781287e-001 7.64850574e-003
      6.50184005e-002 2.43506748e-002 2.59773225e-001 3.44293565e-001
      2.42619082e-001 3.44293565e-001 6.38867170e-003 2.91351557e-001
      7.73386704e-003 1.28237128e-001 4.81034890e-002 3.44293565e-001
      5.15804142e-002 1.48032755e-002 1.96401365e-002 2.79564923e-003
      1.04813464e-001 1.36102643e-003 5.91850467e-002 2.44215038e-002
      4.95772250e-002 1.01401862e-002 7.55488500e-003 1.12789972e-002 0.
      3.35351825e-002 0. 4.11785347e-003 1.40838313e-003 7.21882563e-003
      4.20041084e-001 1.26960263e-001 2.80193985e-001 1.53371645e-002
      3.88502389e-001 7.27793621e-003 1.30019918e-001 5.56504093e-002
      4.20041084e-001 4.20041084e-001 1.69438403e-002 9.30743013e-003
      1.13720179e-003 3.91190909e-002 0. 2.20347685e-003 1.69125374e-003
      4.20041084e-001 1.86249688e-002 5.73245855e-003 1.87370218e-002
      1.18220376e-003 6.48519918e-002 2.59093504e-004 1.00318156e-003
      3.35245801e-004 1.98927391e-002 2.18626335e-001 2.34116558e-002
      7.67510831e-002 3.32528935e-003 2.22845644e-001 2.03668908e-003
      3.78545932e-002 1.60648432e-002 2.38797173e-001 2.35130548e-001
      1.94113888e-002 6.21985607e-002 4.99948859e-003 4.03261334e-001
      5.25116129e-003 1.21933117e-004 2.12256928e-004 2.38584071e-001
      4.03261334e-001 6.83894306e-002 2.18617573e-001 1.98593643e-002
      4.03261334e-001 2.61894464e-002 7.94926733e-002 3.39700542e-002
      4.03261334e-001 2.28654176e-001 1.83048382e-001 3.15557778e-001
      2.85121752e-003 2.09232330e-001 3.70410667e-003 1.61262862e-002
      7.13540334e-003 2.24665150e-001 3.15557778e-001 9.25628319e-002
      2.65653372e-001 2.02456419e-003 8.72830674e-002 2.57964013e-003
      1.58058628e-002 6.64421683e-003 3.15557778e-001 3.15557778e-001
      2.10698117e-002 6.06328212e-002 3.37684434e-003 1.62565961e-001
      2.15876172e-003 2.95898728e-002 1.26893818e-002 3.15557778e-001
      3.15557778e-001 7.63255404e-003 2.05259975e-002 3.84445302e-004
      1.70419682e-002 7.07088853e-004 8.46665644e-004 6.25663262e-004
      3.15557778e-001 3.52742404e-001 1.02658598e-002 2.43458152e-002
      1.36495149e-003 1.82640515e-002 4.61179268e-004 3.71048949e-003
      2.08934606e-003 3.52742404e-001 3.52742404e-001 1.05412561e-003
      4.08590859e-004 1.42396704e-004 1.87237503e-003 0. 9.50938265e-005
      1.65750767e-004 3.52742404e-001 3.52742404e-001 3.83147039e-004
      6.34114782e-004 1.07978216e-004 4.43677971e-004 5.88976000e-005
      3.24479370e-005 1.34639442e-004 3.52742404e-001 3.52742404e-001
      1.09961569e-004 3.83754523e-005 9.49311288e-006 6.11621421e-004 0.
      0. 2.24337455e-005 3.52742404e-001 3.31605166e-001 1.08300801e-002
      3.37550342e-002 1.34099612e-003 1.53807208e-001 1.82728330e-003
      2.36414908e-003 8.95528705e-004 3.31605166e-001 2.10145742e-001
      2.67662276e-002 8.34350660e-002 1.00441119e-002 3.31605166e-001
      1.08314892e-002 1.39599349e-002 5.56553155e-003 2.17862695e-001
      3.31605166e-001 4.39487444e-003 1.36014791e-002 1.36461714e-003
      1.24160901e-001 8.45014583e-004 3.78644243e-002 1.24982204e-002
      3.31605166e-001 3.03331405e-001 1.25293769e-002 3.87011915e-002
      1.18571622e-002 3.31605166e-001 8.80476926e-003 9.03375223e-002
      3.16669382e-002 3.03287774e-001 4.93501186e-001 3.32691800e-003
      1.07321492e-003 9.32352059e-003 1.20791800e-001 4.64678369e-003
      6.58661947e-002 3.70968580e-002 4.93501186e-001 4.93501186e-001
      1.70497992e-003 1.98513735e-004 3.51576856e-003 7.70682469e-003
      2.11893814e-003 2.92679109e-003 3.70231248e-003 4.93501186e-001
      6.95337774e-003 6.95467053e-004 3.91011941e-004 2.45683850e-003
      8.69610626e-003 1.04464637e-003 2.50837393e-003 6.82380563e-003
      1.04556326e-002 4.46377462e-003 3.50012037e-004 9.02335232e-005
      1.59807678e-003 5.21177799e-003 2.40783702e-004 6.25926128e-004
      1.86422048e-003 4.72067855e-003 4.98584181e-001 2.43904242e-006
      7.29854537e-006 4.13503643e-004 4.98306053e-003 2.01117029e-004
      3.09526367e-004 7.05806960e-005 4.98584181e-001 4.98584181e-001
      1.39692711e-004 4.18013835e-004 0. 6.74776500e-003 0.
      8.40946974e-004 2.81030458e-004 4.98584181e-001 2.20843521e-003
      2.63536116e-004 7.88598205e-004 1.87956204e-004 1.21689327e-002
      1.34078027e-005 1.45611388e-003 4.84418328e-004 2.20843521e-003
      2.36149877e-003 1.87115942e-003 5.59921796e-003 0. 1.89518742e-002
      0. 5.83069911e-003 1.94852159e-003 2.36149877e-003 3.39032561e-001
      1.59479256e-004 2.82805588e-004 3.65496846e-003 2.97514230e-001
      2.15323106e-003 6.55027851e-002 2.29502544e-002 3.39032561e-001
      3.39032561e-001 2.13109441e-002 6.29808009e-002 1.49853528e-002
      3.39032561e-001 1.07611232e-002 1.98664188e-001 7.50482902e-002
      3.39032561e-001 2.11970806e-002 4.33062378e-004 1.23413361e-003
      1.12893991e-003 9.64165553e-002 9.82087688e-004 2.25899331e-002
      8.67372099e-003 2.15671472e-002 2.64692783e-001 1.57650262e-002
      4.78673838e-002 3.00659356e-003 3.39032561e-001 1.83037901e-003
      8.82328376e-002 3.54742892e-002 2.66992956e-001</_>
    <_>
      8.52720253e-003 5.82246529e-003 6.59630541e-003 3.60361999e-003
      2.57843756e-003 2.10510870e-003 1.99194299e-003 9.31343064e-004
      6.46076258e-003 9.09559987e-003 5.47567941e-003 1.06384261e-002
      3.61177768e-003 4.82068071e-003 4.00203420e-003 3.38590192e-003
      2.28340365e-003 6.36258628e-003 3.73702258e-001 2.24575609e-001
      3.73702258e-001 1.11600179e-002 1.46648530e-002 1.10293915e-002
      1.74623448e-002 9.46892705e-003 3.73702258e-001 3.73702258e-001
      9.50299650e-002 2.58145303e-001 9.42440610e-003 1.76001322e-002
      1.96719319e-002 3.73702258e-001 1.73333913e-001 3.73702258e-001
      9.72580072e-003 1.27168186e-003 6.37140544e-003 2.59545655e-003
      1.19872103e-002 4.75395471e-003 5.29019395e-003 4.39296896e-003
      9.76994447e-003 8.31506588e-003 0. 1.94649518e-004 8.98591534e-005
      5.41849714e-003 8.26162461e-004 2.34615477e-003 1.33968727e-003
      8.46232288e-003 4.25740153e-001 1.00840246e-002 1.67024247e-002
      5.53570827e-003 3.73055898e-002 2.82864682e-002 4.25740153e-001
      2.80668229e-001 4.25740153e-001 4.25740153e-001 2.76396051e-003
      2.50263663e-004 1.15533192e-004 1.93586536e-002 5.86107001e-003
      7.92716369e-002 2.76456419e-002 4.25740153e-001 1.07162166e-002
      3.79535748e-004 3.93537898e-003 2.20333785e-003 4.75317892e-003
      1.34059787e-003 1.06523966e-003 1.29001925e-003 1.12315798e-002
      1.50678959e-002 5.81210433e-003 6.89975824e-003 1.14125721e-002
      1.34782465e-002 6.37918757e-003 3.83923389e-003 6.19908981e-003
      1.75004136e-002 4.94457245e-001 3.26548517e-003 8.02430045e-003
      7.37733021e-003 2.37672571e-002 1.72362570e-003 6.04185369e-003
      8.99580773e-003 4.94457245e-001 4.94457245e-001 2.62695458e-002
      1.98985450e-002 4.43104394e-002 6.06085174e-002 1.61803998e-002
      6.72491640e-002 5.89797273e-002 4.94457245e-001 2.73922861e-001
      1.68825120e-001 2.92630762e-001 2.10741442e-003 5.12390723e-003
      2.29701633e-003 7.29860691e-003 3.42850876e-003 2.68140584e-001
      2.92630762e-001 4.63704653e-002 1.29447892e-001 3.19536100e-003
      6.95344573e-003 3.10394936e-003 2.92630762e-001 1.00042544e-001
      2.92630762e-001 2.92630762e-001 9.59051326e-002 2.80077428e-001
      2.41762376e-003 8.17153137e-003 5.49562450e-004 8.73063970e-003
      1.75623316e-002 2.92630762e-001 2.92630762e-001 3.33620645e-002
      8.30395147e-002 5.16912807e-003 7.83183146e-003 8.47070070e-004
      1.00110471e-001 3.57186347e-002 2.92630762e-001 3.32650304e-001
      1.85435161e-003 1.53978681e-003 1.71002978e-003 5.76268928e-003
      2.69204308e-003 2.61512905e-001 8.60605165e-002 3.32650304e-001
      3.32650304e-001 4.37806768e-004 7.09479646e-005 2.20612288e-004
      2.88861734e-003 7.07322324e-004 2.71907747e-002 8.84303823e-003
      3.32650304e-001 3.32650304e-001 4.45977412e-002 1.28003702e-001
      3.68298893e-003 4.86483751e-003 7.04862585e-004 9.21248347e-002
      3.22160125e-002 3.32650304e-001 3.32650304e-001 2.53327526e-002
      7.76157677e-002 1.26463315e-003 2.26241094e-003 2.50634999e-004
      1.15033370e-002 3.71966604e-003 3.32650304e-001 3.51225406e-001
      2.45929405e-004 2.60665605e-004 4.53971996e-004 2.13208375e-003
      2.56234198e-005 6.76220807e-004 8.55879858e-004 3.51225406e-001
      3.51225406e-001 2.17638654e-003 2.90464470e-003 4.53280844e-003
      3.92351262e-002 1.19427522e-003 2.40634773e-002 1.22399582e-002
      3.51225406e-001 3.51225406e-001 2.75381371e-005 1.15799967e-005
      1.01563353e-004 1.68742496e-003 0. 3.55972035e-004 3.05944966e-004
      3.51225406e-001 3.51225406e-001 9.68404673e-003 2.96626966e-002
      2.29457417e-003 7.71267116e-002 4.32059809e-004 1.79444235e-002
      7.37991044e-003 3.51225406e-001 4.63759899e-001 1.22440597e-002
      3.01283859e-002 3.40600149e-003 1.72049385e-002 1.59323378e-003
      1.42755974e-002 3.47581059e-002 4.63759899e-001 4.63759899e-001
      3.55671048e-002 9.30353850e-002 4.35551209e-003 1.13997078e-002
      3.96955945e-003 1.84815144e-003 3.79633741e-003 4.63759899e-001
      1.64662480e-001 1.48386590e-003 2.36801826e-003 1.07785000e-003
      6.72880374e-003 7.24197249e-004 9.68486129e-004 3.05680558e-003
      1.63960755e-001 1.83132172e-001 2.55282386e-003 7.03724287e-003
      7.42338656e-004 4.00310382e-003 1.79865817e-003 2.50171812e-004
      6.49622350e-004 1.85785830e-001 4.39525843e-001 1.16966106e-001
      3.46385568e-001 7.18069356e-003 1.07297674e-002 2.90177739e-003
      1.19634764e-003 2.56452966e-003 4.39525843e-001 4.39525843e-001
      6.85322434e-002 2.10858598e-001 5.18198172e-003 5.63973049e-003
      5.34517341e-004 4.22976358e-004 1.86712205e-004 4.39525843e-001
      1.25528574e-001 7.76077760e-003 2.35285405e-002 2.06289184e-003
      4.34349291e-003 1.28991343e-003 1.04992301e-004 1.65360878e-004
      1.29398718e-001 5.64356409e-002 4.56980010e-003 1.41440919e-002
      1.78339146e-003 2.44481675e-003 2.20347531e-004 3.58746220e-005
      1.19886681e-005 5.70811480e-002 4.93901968e-001 2.63456139e-004
      8.78332867e-005 4.75396082e-004 5.42087806e-003 0. 1.20673690e-003
      1.76931871e-003 4.93901968e-001 4.93901968e-001 1.98403168e-002
      5.92661537e-002 3.62978829e-003 7.09108040e-002 2.53230939e-003
      3.13129742e-003 4.29403363e-003 4.93901968e-001 4.59655188e-002
      2.04910320e-004 4.28795902e-005 1.55955786e-004 2.34856387e-003 0.
      2.78477732e-004 1.15554454e-003 4.66130637e-002 5.43922372e-002
      9.50341462e-004 8.29908473e-004 1.31563819e-003 4.94824257e-003
      1.65851752e-003 6.42302213e-004 2.51091062e-003 5.48219755e-002</_>
    <_>
      1.25522882e-001 1.30218104e-001 3.10277969e-001 4.70851967e-003
      1.02777340e-001 2.66952952e-003 1.12148590e-001 4.03293744e-002
      1.24678731e-001 8.16927776e-002 5.99573553e-002 1.76655412e-001
      7.23320013e-003 2.11413994e-001 3.77686904e-003 1.92688495e-001
      6.99746236e-002 8.57113749e-002 1.85990050e-001 3.10277969e-001
      3.10277969e-001 7.38870632e-003 2.87586987e-001 6.55679777e-003
      1.33778438e-001 4.95714657e-002 1.82663441e-001 1.18360192e-001
      1.97917387e-001 3.10277969e-001 9.16201901e-003 3.10277969e-001
      2.90634623e-003 2.47473732e-001 8.79774392e-002 1.16196327e-001
      5.84580228e-002 1.79422088e-002 5.21534979e-002 1.96921565e-002
      3.03973317e-001 1.75870694e-002 2.09471107e-001 8.99868533e-002
      7.75649175e-002 2.09273417e-002 4.24873875e-003 1.13185477e-002
      9.34135262e-003 2.69673187e-002 5.87898865e-003 8.40215478e-003
      1.28820203e-002 2.96203755e-002 9.68542621e-002 1.56693399e-001
      3.42549950e-001 2.71992404e-002 3.42549950e-001 1.38438018e-002
      2.77405977e-001 1.04066715e-001 9.66394991e-002 3.41470718e-001
      3.42549950e-001 3.42549950e-001 3.34464833e-002 3.89042497e-002
      1.46941850e-002 2.92092375e-002 2.63186209e-002 3.37840021e-001
      1.97115187e-002 2.73977406e-002 7.47681707e-002 2.35826802e-003
      5.16869919e-003 1.32529309e-003 2.02445686e-003 2.56501208e-003
      1.93309505e-002 9.97020677e-002 1.78076893e-001 3.71207476e-001
      5.38019696e-003 6.26049563e-002 2.37092096e-003 3.95752117e-002
      1.49786873e-002 9.77626666e-002 1.61782414e-001 2.91427135e-001
      3.71207476e-001 5.24442364e-003 8.98235384e-003 2.10472639e-003
      7.96707999e-003 5.15748840e-003 1.59953699e-001 2.60441303e-001
      3.71207476e-001 3.71207476e-001 1.36305243e-002 3.19802165e-001
      4.46124841e-003 7.66649544e-002 2.65225824e-002 2.59284765e-001
      7.06554279e-002 1.79970413e-001 2.87158251e-001 9.47532710e-003
      2.87158251e-001 8.47816654e-003 5.11966981e-002 1.90032125e-002
      7.23273754e-002 8.14471319e-002 1.15799211e-001 2.87158251e-001
      3.37546808e-003 1.08183138e-001 1.63225806e-003 3.86944711e-002
      1.43241687e-002 7.76307955e-002 2.87158251e-001 3.26714590e-002
      8.94483626e-002 8.22307635e-003 2.87158251e-001 8.79277755e-003
      2.87158251e-001 1.73665404e-001 2.87158251e-001 2.87158251e-001
      1.37265101e-001 2.87158251e-001 2.38900608e-003 6.28965199e-002
      2.38467730e-003 1.48855343e-001 5.42736202e-002 2.87158251e-001
      7.36283958e-002 8.03669617e-002 2.29930729e-001 1.37299928e-003
      2.30523106e-002 1.30824291e-003 9.00993217e-003 4.40098764e-003
      7.05873147e-002 1.49836928e-001 2.09128380e-001 3.20178866e-001
      2.74603744e-003 5.19628869e-003 2.09258962e-003 4.36804770e-003
      3.74319754e-003 1.51415989e-001 3.02505016e-001 2.39572376e-001
      3.20178866e-001 1.25815894e-003 4.78824833e-003 6.41335559e-004
      1.98621349e-003 3.16509441e-003 3.07019114e-001 2.90707022e-001
      3.15280914e-001 3.20178866e-001 1.98353827e-003 4.87752911e-003
      1.77043490e-003 5.55220898e-003 3.71034676e-003 3.20178866e-001
      1.49005026e-001 2.52074152e-001 3.47713649e-001 1.78444653e-003
      1.49137042e-002 9.22690379e-004 6.15153462e-003 3.24699283e-003
      1.52154341e-001 1.44869775e-001 1.92396015e-001 3.47713649e-001
      6.26180414e-003 3.47713649e-001 3.92631721e-003 6.98004737e-002
      2.42596418e-002 1.47450060e-001 1.39225483e-001 2.14018553e-001
      3.47713649e-001 1.38540007e-003 3.49530540e-002 3.72953806e-003
      6.04353752e-003 2.82310834e-003 1.63459554e-001 6.41325638e-002
      9.67325717e-002 2.89917111e-001 7.63253029e-003 3.47713649e-001
      1.01671182e-002 4.40590493e-002 1.52882133e-002 6.72652274e-002
      3.24373215e-001 3.42105259e-003 4.83200559e-003 2.08929018e-003
      9.87380669e-002 2.49480945e-003 3.24373215e-001 2.11150944e-001
      3.24373215e-001 3.24373215e-001 1.09831303e-001 3.24373215e-001
      8.76405509e-004 1.42110297e-002 8.06241529e-004 2.01765925e-001
      7.04261512e-002 3.24373215e-001 1.47742704e-001 3.26614012e-004
      7.70697225e-005 1.64819372e-004 1.81382126e-003 2.96383834e-004
      1.20111093e-001 3.94028723e-002 1.41052052e-001 3.09211880e-001
      1.60804782e-002 4.92464975e-002 9.86823507e-005 4.90324106e-004 0.
      5.15412912e-002 1.67570952e-002 3.06913942e-001 3.42207104e-001
      3.15890938e-001 3.42207104e-001 2.88153696e-003 3.97014152e-003
      3.68668057e-004 2.59030401e-003 4.77177463e-003 3.42207104e-001
      2.99574852e-001 2.79642969e-001 3.42207104e-001 4.82294802e-003
      6.96320413e-003 2.24999385e-003 1.13883764e-002 5.48193138e-003
      3.42207104e-001 2.19158143e-001 5.72966300e-002 1.70404896e-001
      1.44050107e-003 4.68551327e-004 8.79308300e-006 8.97191057e-004
      1.15725049e-003 2.27112859e-001 3.56975235e-002 3.09662577e-002
      8.47445130e-002 2.24320753e-003 3.00451159e-003 1.31896231e-004
      2.73998221e-003 1.60480558e-003 4.06826586e-002 1.52876332e-001
      1.72121301e-001 4.68235582e-001 6.65546255e-003 8.72675180e-002
      7.71130947e-003 1.38668912e-002 7.22322520e-003 2.04181015e-001
      1.94063440e-001 5.65787889e-002 1.50883704e-001 1.92409568e-002
      4.68235582e-001 1.90367084e-002 1.61206633e-001 5.97915985e-002
      1.98148489e-001 9.95202083e-003 5.38399816e-003 5.36075234e-003
      2.92628305e-003 3.17103118e-002 3.36595869e-004 2.37131002e-003
      2.13506073e-003 1.38628585e-002 2.00066462e-001 1.94563549e-002
      4.99241352e-002 5.28787822e-003 4.68235582e-001 2.05466687e-003
      1.22462399e-001 4.55072410e-002 2.00952604e-001</_>
    <_>
      1.75609291e-001 1.67453978e-002 4.18724045e-002 8.04486859e-004
      2.85268188e-001 5.85902296e-003 9.45194811e-002 2.86127515e-002
      1.78743795e-001 1.12894159e-002 2.14036256e-002 5.58120832e-002
      2.76503939e-004 6.43843710e-002 4.70594317e-003 6.34795707e-003
      6.16449397e-003 1.70421973e-002 2.62189329e-001 4.09658588e-002
      9.47587937e-002 2.44757999e-002 5.22559106e-001 3.58373486e-002
      2.11790264e-001 6.34930804e-002 2.66005874e-001 2.97929142e-002
      1.02573730e-001 2.63987392e-001 1.56158814e-002 5.22559106e-001
      2.14938950e-002 1.70504469e-002 1.12642227e-002 3.56339365e-002
      6.83077276e-002 4.31997702e-002 1.23191126e-001 2.40703564e-004
      1.06416028e-002 7.82225979e-004 1.43993821e-004 1.81269634e-003
      6.67147860e-002 3.25434566e-001 3.49338353e-002 1.02084175e-001
      2.39498826e-004 2.59129866e-003 4.91846149e-005 6.73304778e-004
      8.21861380e-004 3.21267486e-001 1.26079381e-001 1.80958688e-001
      3.30430299e-001 8.67789797e-003 3.30430299e-001 7.10579660e-003
      1.27783255e-003 3.64350714e-003 1.23580940e-001 3.30430299e-001
      1.74418285e-001 3.30430299e-001 5.34950849e-003 3.30430299e-001
      3.05422372e-003 3.93581111e-003 4.13840497e-003 3.30430299e-001
      2.86657214e-001 1.69556623e-003 4.47357586e-003 3.81913560e-005
      1.97236938e-003 1.04508763e-004 5.01776987e-004 3.07040231e-004
      2.87550002e-001 2.92503893e-001 7.43563869e-004 4.74949600e-004
      4.15058632e-004 3.52703668e-002 7.28239480e-004 2.13582702e-002
      6.88728457e-003 2.90447026e-001 3.41654867e-001 1.92193966e-002
      5.59581853e-002 1.11372687e-003 5.75698353e-002 1.17835624e-003
      6.38817996e-002 2.02248078e-002 3.41654867e-001 3.41654867e-001
      2.96663865e-003 3.32079758e-003 4.65218863e-003 3.41654867e-001
      7.49477837e-003 2.42374003e-001 7.90201649e-002 3.41654867e-001
      1.94002669e-002 5.66579774e-003 1.07088508e-002 1.21600609e-002
      3.71911168e-001 1.48711409e-002 2.46848930e-002 8.01404659e-003
      1.86880715e-002 9.73842014e-003 1.96538959e-002 4.88078333e-002
      1.22091612e-002 3.71911168e-001 9.24847554e-003 3.71247716e-003
      3.30664613e-003 9.17684473e-003 1.95881993e-001 1.72975240e-003
      4.08198498e-003 9.92429629e-003 3.71911168e-001 9.07645561e-003
      2.32678294e-001 8.05053785e-002 2.01154053e-001 3.60961288e-001
      5.38854823e-002 1.63683236e-001 7.46065378e-003 3.71911168e-001
      7.38600874e-003 6.83231503e-002 2.72091888e-002 3.64320934e-001
      2.53914855e-002 6.93353042e-002 2.01581389e-001 1.22314859e-002
      4.03787106e-001 1.02258353e-002 7.01584737e-004 1.92017190e-003
      2.49074660e-002 2.44572535e-001 9.39315706e-002 2.81389087e-001
      6.55247783e-003 4.03787106e-001 4.34361538e-003 2.21525808e-003
      2.85208155e-003 2.42766008e-001 1.18462421e-001 7.32891858e-002
      2.14087889e-001 5.55987097e-003 4.03787106e-001 8.63989070e-003
      4.81117226e-004 2.30447180e-003 1.17452413e-001 1.66181177e-002
      3.32953334e-002 9.57410261e-002 2.67936289e-003 4.03787106e-001
      2.54309154e-003 7.66374287e-004 1.49740407e-003 1.68317780e-002
      3.81158859e-001 2.20501274e-002 6.52302057e-002 2.02048989e-003
      1.94835469e-001 1.64559530e-003 7.04077855e-002 2.28286944e-002
      3.80509257e-001 2.34048486e-001 1.25341082e-003 2.16802279e-003
      5.92047675e-003 4.20741320e-001 1.05644790e-002 2.36075833e-001
      7.76453614e-002 2.36211166e-001 1.21167190e-002 5.64163225e-003
      1.55812493e-002 7.82039831e-004 3.59559506e-001 6.12191623e-004
      8.38710368e-003 3.52458796e-003 1.25301247e-002 5.66635234e-003
      2.24211923e-004 3.68702051e-004 3.43885086e-003 4.20741320e-001
      5.82862319e-003 2.91028973e-002 9.87278949e-003 6.18871581e-003
      3.19681972e-001 2.29503406e-004 1.40531699e-003 3.11798579e-003
      3.19681972e-001 3.20499809e-003 2.00977758e-001 6.79130703e-002
      3.19681972e-001 3.19681972e-001 4.07889150e-002 1.29673243e-001
      1.19077833e-003 8.46917704e-002 1.35887717e-003 5.56365699e-002
      1.98625736e-002 3.19681972e-001 3.19681972e-001 0. 3.10587842e-004
      1.93662461e-004 4.28140014e-002 5.32893930e-004 2.94525046e-002
      9.22084786e-003 3.19681972e-001 3.19681972e-001 2.02235812e-003
      7.83498678e-003 1.46376391e-004 1.02354184e-004 1.05883137e-005
      3.58016277e-003 1.19733624e-003 3.19681972e-001 3.46829385e-001
      1.04718573e-001 3.09913456e-001 4.78699862e-004 3.46829385e-001
      2.13339692e-003 1.76411530e-003 1.47491076e-003 3.46829385e-001
      1.41754255e-001 4.43882272e-002 1.21133894e-001 9.27981455e-005
      3.46829385e-001 4.01429948e-004 8.25685624e-004 3.17472353e-004
      1.41762897e-001 3.46829385e-001 2.15388052e-002 6.06130101e-002
      4.98621121e-005 1.16393164e-001 0. 8.01870599e-004 2.67971220e-004
      3.46829385e-001 1.48013324e-001 2.34229285e-002 6.27743229e-002 0.
      2.11838737e-001 0. 3.75311647e-004 1.25422564e-004 1.48235843e-001
      9.10801999e-003 5.69905993e-003 1.44964010e-002 1.19598955e-003
      4.95361835e-001 3.50932358e-004 7.71398190e-003 2.46214750e-003
      8.76221247e-003 1.31664425e-001 2.03450508e-002 5.92464432e-002
      7.89988600e-003 5.11054456e-001 3.57427262e-003 1.14979163e-001
      3.15273143e-002 1.18995488e-001 1.50974579e-002 5.95241133e-003
      1.36057166e-002 3.34004383e-003 1.57247812e-001 7.72051222e-004
      9.99909081e-003 3.11683142e-003 1.43165095e-002 2.55529910e-001
      3.68540473e-002 8.58967826e-002 1.12611214e-002 5.11054456e-001
      3.47922998e-003 1.50754020e-001 4.33341973e-002 2.29573429e-001</_>
    <_>
      2.58272737e-001 7.61472583e-002 2.23390892e-001 5.00980881e-004
      4.96014915e-002 1.76143716e-003 3.03986929e-002 9.52238217e-003
      2.54024118e-001 2.03720078e-001 1.60246007e-002 5.38865663e-002
      2.08147941e-003 1.73909456e-001 6.12154976e-003 6.70657754e-002
      2.04891693e-002 2.02325970e-001 2.76161283e-001 2.33678058e-001
      2.76161283e-001 9.23114922e-003 2.76161283e-001 1.03211626e-002
      4.11338024e-002 1.50630036e-002 2.76161283e-001 2.76161283e-001
      1.00459352e-001 2.76161283e-001 1.23991212e-002 2.76161283e-001
      1.35837272e-002 8.84190351e-002 3.06609757e-002 2.76161283e-001
      4.69843708e-002 7.13775214e-003 1.73292495e-002 1.73809764e-003
      1.23213708e-001 5.85514400e-003 3.23719904e-002 1.00735575e-002
      4.54114936e-002 1.07037008e-001 3.41293216e-002 9.21250284e-002
      6.47653500e-003 6.19638786e-002 1.35426468e-003 1.65950076e-003
      1.81688438e-003 1.02480553e-001 1.78296819e-001 1.88998759e-001
      3.82694036e-001 9.18525830e-003 2.72963047e-001 1.49918348e-002
      4.60573472e-002 2.01273300e-002 1.82382286e-001 3.82694036e-001
      3.82694036e-001 3.82694036e-001 1.75119098e-002 1.69988364e-001
      4.66085598e-003 6.70708437e-003 5.11092227e-003 3.82694036e-001
      1.19904958e-001 4.85860780e-002 1.45893633e-001 4.41459054e-003
      7.14676082e-002 5.42756519e-004 3.70106485e-004 8.54833284e-004
      1.18818097e-001 2.75627464e-001 9.83104482e-002 2.75627464e-001
      2.64810678e-003 2.22572207e-001 4.29268694e-003 2.80712340e-002
      9.48715862e-003 2.75627464e-001 2.75627464e-001 2.11746559e-001
      2.75627464e-001 1.13827130e-002 1.84050143e-001 1.60066015e-003
      2.04826817e-002 7.25950254e-003 2.75627464e-001 2.75627464e-001
      1.75931811e-001 2.75627464e-001 6.98833307e-003 2.75627464e-001
      7.60603230e-003 9.47537348e-002 2.85065025e-002 2.75627464e-001
      1.63408905e-001 7.32261091e-002 2.19257534e-001 1.06327115e-002
      2.80072719e-001 1.18338084e-002 5.68687953e-002 1.99057274e-002
      1.64321497e-001 2.65949249e-001 9.64121968e-002 2.80072719e-001
      6.91347569e-003 1.99260160e-001 8.89826473e-003 3.03478539e-002
      1.30960355e-002 2.75081068e-001 2.80072719e-001 6.18110504e-003
      1.32609736e-002 7.06450827e-003 2.55998611e-001 5.61710633e-003
      2.13513255e-001 7.06835166e-002 2.80072719e-001 2.80072719e-001
      1.34352893e-001 2.80072719e-001 5.17522497e-003 6.98833615e-002
      4.02085576e-003 3.07633765e-002 1.16686514e-002 2.80072719e-001
      1.66961461e-001 1.64619014e-001 3.10568541e-001 2.21448718e-003
      2.58519351e-002 4.07964084e-003 3.31348367e-003 3.93075310e-003
      1.77252039e-001 2.15503216e-001 2.70273834e-001 3.10568541e-001
      2.81360513e-003 1.83778871e-002 1.48031767e-003 2.04723328e-003
      1.44718681e-003 2.20195994e-001 3.10568541e-001 2.22181633e-001
      3.10568541e-001 3.48181743e-003 4.13281610e-003 2.17350968e-003
      1.15197792e-003 1.64798973e-003 3.10568541e-001 1.84218273e-001
      2.01769397e-001 3.10568541e-001 3.43256420e-003 5.04437834e-003
      2.30449555e-003 2.02178257e-003 1.49688777e-003 1.96573019e-001
      2.48963743e-001 2.37241760e-001 3.62771869e-001 5.63309435e-003
      1.52820423e-001 2.75182026e-003 2.13828441e-002 7.33322697e-003
      2.45317727e-001 1.18169717e-001 1.24126963e-001 3.62771869e-001
      9.99462884e-003 3.62771869e-001 1.02689331e-002 8.42875913e-002
      2.53342707e-002 1.19004063e-001 1.03577435e-001 1.06405288e-001
      3.17798495e-001 4.33128048e-003 1.55236632e-001 3.54095385e-003
      9.90033615e-003 3.94716021e-003 1.04455613e-001 1.36838317e-001
      3.46831605e-002 1.04704939e-001 1.02530997e-002 3.62771869e-001
      8.87712929e-003 8.53074193e-002 2.95738243e-002 1.36739761e-001
      3.91298532e-001 1.17610237e-002 1.51684238e-002 5.31837763e-003
      3.58488485e-002 1.10636046e-003 3.51780832e-001 1.15465499e-001
      3.91298532e-001 3.91298532e-001 1.75169274e-001 3.91298532e-001
      4.25379397e-003 1.33810593e-002 1.35043985e-003 2.22097933e-002
      8.99442099e-003 3.91298532e-001 1.18090525e-001 3.64766689e-003
      1.91234809e-003 1.21333497e-003 1.32118748e-003 3.94715258e-004
      1.74988657e-002 5.45959780e-003 1.18189014e-001 1.26904175e-001
      1.03001483e-002 2.05730349e-002 1.19053308e-004 2.94275256e-003
      5.86970476e-004 1.78330520e-003 8.75356840e-004 1.24009103e-001
      3.99799019e-001 3.99799019e-001 3.99799019e-001 1.38352932e-002
      1.89834777e-002 5.88094722e-003 8.31253268e-003 6.08752156e-003
      3.99799019e-001 2.50346601e-001 2.20933139e-001 3.99799019e-001
      1.98808890e-002 2.24654563e-002 9.26045515e-003 1.44589739e-002
      1.03562670e-002 2.63436824e-001 7.70903230e-002 1.72755513e-002
      3.55288871e-002 1.88806490e-003 6.67112740e-003 2.31855200e-003
      2.80867051e-003 1.72130705e-003 7.64722601e-002 1.50860734e-002
      6.98774448e-003 6.83084270e-003 4.02095076e-003 6.74715079e-003
      2.49412283e-003 5.17625082e-003 2.52538803e-003 9.54735000e-003
      7.19103515e-002 5.06536253e-002 1.26767710e-001 1.68057997e-002
      2.88201272e-001 8.62896442e-003 4.71056476e-002 2.14565247e-002
      6.27109408e-002 4.51796204e-001 4.69520874e-002 1.48360670e-001
      1.99772678e-002 4.51796204e-001 8.64036288e-003 4.15998399e-001
      1.44929200e-001 4.51796204e-001 1.41229089e-002 2.02016393e-003
      2.63813231e-003 2.61780340e-003 1.03640985e-002 1.52161682e-003
      7.79508799e-003 3.81915132e-003 9.25887469e-003 1.55259565e-001
      4.95667057e-003 1.56005276e-002 1.03609823e-003 3.35514769e-002
      3.34278564e-004 3.01921871e-002 1.08491005e-002 1.53381377e-001</_>
    <_>
      2.18258351e-001 1.03148483e-001 2.61760324e-001 2.05865316e-003
      2.70690303e-002 2.47540930e-003 1.81226730e-002 7.47189950e-003
      2.24897310e-001 2.52634555e-001 5.71980849e-002 1.60894305e-001
      2.51414580e-003 2.09833458e-001 4.53263009e-003 7.48194084e-002
      2.60289516e-002 2.53171295e-001 2.33321086e-001 2.38224477e-001
      2.61760324e-001 3.22099798e-003 2.59305149e-001 3.21142911e-003
      2.80167274e-002 1.05415815e-002 2.44950861e-001 2.61760324e-001
      1.58105865e-001 2.61760324e-001 3.53128766e-003 2.61760324e-001
      4.33567492e-003 6.31992295e-002 2.25935783e-002 2.61760324e-001
      1.06828399e-001 1.96965486e-002 4.10508290e-002 6.34505879e-003
      2.39360929e-001 5.08242799e-003 6.07572235e-002 2.22998317e-002
      1.04745045e-001 5.79506569e-002 5.65809980e-002 1.68379292e-001
      2.97174905e-003 1.11787580e-002 1.34626601e-003 5.43474173e-003
      2.74851732e-003 5.95253557e-002 2.51572251e-001 2.00648308e-001
      3.48829895e-001 5.91946859e-003 3.06369990e-001 6.39105588e-003
      4.65814434e-002 1.81947909e-002 2.51357436e-001 3.48829895e-001
      3.48829895e-001 3.48829895e-001 5.41050732e-003 1.35126179e-002
      3.21926549e-003 7.56990910e-003 4.78382967e-003 3.48829895e-001
      9.28410515e-002 9.78120267e-002 2.80307800e-001 3.41210165e-004
      6.91682287e-003 1.01229071e-003 8.71762924e-004 2.16218439e-004
      9.24246311e-002 2.52028555e-001 1.57115504e-001 2.80307800e-001
      3.03836283e-003 7.57500753e-002 2.48825061e-003 2.68373936e-002
      9.92201176e-003 2.54847467e-001 2.80307800e-001 2.62159318e-001
      2.80307800e-001 1.79009966e-003 2.15871856e-002 2.94334046e-003
      1.51356263e-002 4.80568316e-003 2.80307800e-001 2.80307800e-001
      1.69073105e-001 2.80307800e-001 6.65482599e-003 2.80307800e-001
      1.34266261e-002 6.93605170e-002 2.15939041e-002 2.80307800e-001
      9.75679308e-002 8.97394344e-002 2.77254283e-001 4.62854607e-003
      2.79873490e-001 3.73692089e-003 2.06680119e-001 6.91512600e-002
      1.00676894e-001 2.21332073e-001 1.43310398e-001 2.79873490e-001
      3.19879293e-003 1.47694409e-001 3.22493375e-003 8.01098421e-002
      2.92936508e-002 2.27750421e-001 2.11492956e-001 1.98306236e-002
      6.45456761e-002 2.72750133e-003 1.57196566e-001 4.22423752e-003
      2.79873490e-001 2.04944998e-001 2.10635349e-001 2.79873490e-001
      1.84477001e-001 2.79873490e-001 1.40016736e-003 4.54078503e-002
      3.29921395e-003 1.57927915e-001 5.62826432e-002 2.79873490e-001
      1.76323548e-001 1.86221570e-001 3.12654287e-001 1.89790328e-003
      2.42915507e-002 2.44612410e-003 1.25418359e-003 1.40843121e-003
      1.83970392e-001 2.34881252e-001 2.62162060e-001 3.12654287e-001
      1.61561929e-003 6.20089099e-003 2.16326327e-003 3.32146860e-003
      1.71718013e-003 2.44175509e-001 2.66094804e-001 2.29266822e-001
      3.12654287e-001 1.27944758e-003 5.41387266e-003 1.65185344e-003
      1.71245914e-003 3.30376648e-003 2.95507967e-001 1.83844447e-001
      1.94536731e-001 3.12654287e-001 1.22787838e-003 8.93739518e-003
      2.64311046e-003 4.71784174e-003 4.31004912e-003 1.98881954e-001
      2.77194023e-001 2.21528083e-001 3.66864622e-001 2.27090111e-003
      9.49029326e-002 5.14029013e-003 2.42496338e-002 7.73358345e-003
      2.84429729e-001 1.95572808e-001 8.40911418e-002 2.53243655e-001
      1.41328825e-002 3.66864622e-001 2.28881650e-002 9.38747302e-002
      2.80447435e-002 2.00682193e-001 1.16830714e-001 1.06151640e-001
      3.18761945e-001 4.26367018e-003 1.77785546e-001 6.95042918e-003
      1.49572855e-002 6.50685979e-003 1.16591133e-001 1.16556458e-001
      3.10690030e-002 8.94137844e-002 2.75697708e-002 3.66864622e-001
      2.53651850e-002 7.83591121e-002 2.69476939e-002 1.14647388e-001
      3.37568402e-001 4.45816033e-002 1.35606259e-001 1.69587287e-003
      1.32345557e-002 7.27068214e-003 3.37568402e-001 2.81690985e-001
      3.37568402e-001 3.37568402e-001 2.58778900e-001 3.37568402e-001
      1.12219050e-003 9.56452172e-003 4.31747828e-003 2.41520301e-001
      8.44544545e-002 3.37568402e-001 1.03578113e-001 1.00416867e-002
      2.85684299e-002 4.05590428e-004 2.79337214e-003 1.93129387e-003
      8.34047943e-002 2.86556091e-002 1.02589190e-001 1.37865871e-001
      3.27442065e-002 9.85666588e-002 3.20122781e-004 3.92565038e-003
      1.06033881e-003 4.33726795e-002 1.51185719e-002 1.36134490e-001
      4.00679022e-001 4.00679022e-001 4.00679022e-001 5.01956884e-003
      1.76087059e-002 7.95340911e-003 8.06851964e-003 1.48482881e-002
      4.00679022e-001 2.36866146e-001 1.97330579e-001 4.00679022e-001
      6.89448416e-003 2.38252431e-002 1.37118809e-002 1.71975959e-002
      1.85286887e-002 2.74274856e-001 7.71863833e-002 2.86165588e-002
      8.30460116e-002 1.77264598e-003 7.38701550e-003 3.41866002e-003
      2.55329558e-003 3.55075672e-003 7.97361881e-002 1.62023026e-002
      4.25188756e-003 4.36861906e-003 1.64347503e-003 5.87381097e-003
      5.63786738e-003 4.01909649e-003 5.30259358e-003 1.86617691e-002
      5.74949905e-002 3.73114906e-002 9.00965929e-002 1.38380518e-002
      2.98151165e-001 1.20617710e-002 3.87754738e-002 1.77748855e-002
      6.00671805e-002 4.50844586e-001 4.07182239e-002 1.07702583e-001
      6.09142408e-002 4.50844586e-001 3.12965363e-002 3.32348853e-001
      1.19107015e-001 4.50844586e-001 1.62087400e-002 2.96714483e-003
      3.83585133e-003 2.18178262e-003 2.36048065e-002 2.51379726e-003
      7.50499917e-003 3.89790116e-003 1.76492818e-002 2.38203198e-001
      1.07698124e-002 2.72541847e-002 6.73768111e-003 1.10879034e-001
      2.20339559e-003 7.62542412e-002 2.76303720e-002 2.40604654e-001</_>
    <_>
      1.09459758e-001 1.16101049e-001 3.50128412e-001 3.02963099e-003
      2.39541754e-001 4.94397897e-003 8.95323604e-002 3.20489593e-002
      1.09358557e-001 4.86933216e-002 1.77064128e-002 5.42770810e-002
      2.42838496e-003 1.55024871e-001 4.06371290e-003 4.08915430e-002
      1.45225804e-002 4.60866615e-002 9.08914283e-002 3.79468054e-001
      3.79468054e-001 1.84967592e-002 3.79468054e-001 1.11105675e-002
      1.16479166e-001 4.29945216e-002 8.77776146e-002 6.24250434e-002
      1.09121412e-001 3.24751467e-001 9.98439919e-003 3.79468054e-001
      1.01948306e-002 5.66657931e-002 2.14791875e-002 5.54396659e-002
      6.23575933e-002 4.92705544e-003 1.32124713e-002 2.96842307e-003
      2.21125484e-002 6.31739444e-004 6.86312793e-003 2.49278871e-003
      5.66936731e-002 7.28753433e-002 3.96634964e-003 9.55230463e-003
      2.86397175e-003 5.08152097e-002 7.35058798e-004 1.54832192e-002
      7.56148109e-003 7.01045319e-002 2.88868487e-001 1.28947422e-001
      3.65880013e-001 1.38824107e-002 3.65880013e-001 1.00821676e-002
      1.09831035e-001 3.94997373e-002 2.81362176e-001 3.56546551e-001
      7.57915825e-002 2.24372357e-001 2.50903200e-002 3.65880013e-001
      1.21096801e-002 2.54755110e-001 9.42247286e-002 3.50349694e-001
      9.60315019e-002 5.44946000e-004 1.20701338e-003 8.70325835e-004
      1.49823397e-001 1.83402910e-003 5.60705774e-002 1.92296039e-002
      9.64813381e-002 3.02356660e-001 6.62637933e-004 1.51612365e-003
      6.73502916e-004 1.76356494e-001 2.76307762e-003 2.52341092e-001
      8.28358978e-002 3.02356660e-001 1.13998882e-001 3.05157574e-003
      2.43914546e-003 7.68772466e-003 3.02356660e-001 6.60316600e-003
      2.88645387e-001 9.62081030e-002 1.16969973e-001 3.02356660e-001
      3.66854342e-003 1.89441175e-003 6.67056907e-003 3.02356660e-001
      6.74638432e-003 3.02356660e-001 3.02356660e-001 3.02356660e-001
      9.67131183e-003 1.57488957e-001 2.79391795e-001 7.86267966e-003
      2.79391795e-001 5.80881303e-003 1.20005831e-001 4.33828719e-002
      7.98194204e-003 1.54289976e-002 1.13839626e-001 2.79391795e-001
      4.07534232e-003 2.37416729e-001 5.21578314e-003 2.17739381e-002
      1.02036037e-002 1.41748209e-002 2.05714852e-001 3.94246280e-002
      1.10838801e-001 7.47203920e-003 2.79391795e-001 4.58012056e-003
      2.79391795e-001 2.16285199e-001 2.02496529e-001 2.79391795e-001
      1.90316528e-001 2.79391795e-001 5.37453499e-003 2.59884745e-001
      4.78796987e-003 1.07317731e-001 4.06838544e-002 2.79391795e-001
      5.19500896e-002 1.22719355e-001 2.94144809e-001 6.48249686e-003
      2.94144809e-001 5.35183167e-003 5.48253022e-002 2.05230508e-002
      5.15901446e-002 7.18592405e-002 4.04677801e-002 1.17948957e-001
      9.78943519e-003 2.94144809e-001 6.49536494e-003 2.94144809e-001
      1.03568003e-001 7.07330853e-002 1.63089260e-001 1.87921122e-001
      2.94144809e-001 8.45339336e-003 2.94144809e-001 3.51630966e-003
      6.67713508e-002 2.49743890e-002 1.71485290e-001 1.73022464e-001
      6.01433329e-002 1.78603113e-001 1.00052655e-002 2.94144809e-001
      3.69308819e-003 2.94144809e-001 2.29963854e-001 1.71629727e-001
      3.38009223e-002 5.40919183e-003 6.41624769e-003 6.66487729e-003
      2.32849762e-001 4.20886185e-003 2.87441462e-001 1.01725109e-001
      3.47221084e-002 3.68732177e-002 1.67615861e-002 3.59124877e-002
      9.14183632e-003 2.87441462e-001 5.34059806e-003 2.87441462e-001
      1.57565296e-001 3.77002284e-002 2.54440278e-001 1.98490042e-002
      4.84438948e-002 5.04043372e-003 1.13274209e-001 2.42822408e-003
      2.87441462e-001 2.31805578e-001 2.44757891e-001 2.87441462e-001
      1.23932220e-001 2.87441462e-001 5.58624277e-003 2.87441462e-001
      6.17122138e-003 1.64928809e-001 5.65282069e-002 2.87441462e-001
      2.99600333e-001 2.85266340e-002 7.76953027e-002 4.10795119e-003
      7.92395324e-002 9.88604734e-004 2.99600333e-001 2.58555770e-001
      2.99600333e-001 2.99600333e-001 1.70139089e-001 2.99600333e-001
      3.35589633e-003 1.54628977e-001 1.33945362e-003 1.65270761e-001
      6.01707138e-002 2.99600333e-001 1.59008220e-001 1.54862832e-002
      4.45587561e-002 4.17487754e-004 1.22247136e-003 5.15728352e-005
      2.17364907e-001 7.64511898e-002 1.61191195e-001 2.58428782e-001
      6.52392432e-002 1.99713275e-001 1.80677715e-004 6.94408966e-003
      2.02972296e-005 7.79340714e-002 2.77114641e-002 2.65024453e-001
      2.92074919e-001 2.03262687e-001 2.92074919e-001 7.67612318e-003
      2.92074919e-001 2.98455195e-003 7.52308816e-002 2.81935986e-002
      2.92074919e-001 2.63776481e-001 7.39031211e-002 2.16699451e-001
      1.17635531e-002 2.80570537e-001 3.26139317e-003 2.92074919e-001
      2.92074919e-001 2.64769763e-001 1.35571539e-001 5.41880056e-002
      1.66940302e-001 9.99102020e-004 3.10455281e-002 7.97564746e-004
      1.32501442e-002 4.94563533e-003 1.41001448e-001 9.04583186e-002
      1.16559416e-002 2.96521168e-002 1.73499319e-003 2.69920919e-002
      1.00729149e-003 2.64046520e-001 9.08561870e-002 9.10429135e-002
      2.95697749e-001 1.51099889e-002 3.76053602e-002 3.24614765e-003
      4.48616780e-002 9.50287329e-004 2.95697749e-001 2.08833307e-001
      2.95697749e-001 2.95697749e-001 1.43465668e-001 2.95697749e-001
      8.37991887e-004 1.20118707e-001 2.14137160e-003 1.08696833e-001
      3.59764136e-002 2.95697749e-001 2.54936039e-001 2.48759915e-003
      5.41526172e-003 4.90879349e-004 4.16368712e-003 2.15419161e-004
      1.92729712e-001 6.61718696e-002 2.55381644e-001 2.95697749e-001
      5.15256859e-002 1.64793164e-001 4.28093226e-005 9.37914103e-003
      4.97463450e-004 2.01857425e-002 6.96280785e-003 2.95697749e-001</_>
    <_>
      1.63273215e-001 1.29396087e-002 3.43266092e-002 5.26538771e-003
      2.91522622e-001 1.39679178e-003 9.54950005e-002 3.27246338e-002
      1.65186509e-001 5.47709912e-002 1.46605633e-002 3.02841552e-002
      2.54259165e-003 8.01058114e-002 1.45617162e-003 3.16374679e-003
      3.23488866e-003 5.89600094e-002 2.52292782e-001 3.52349728e-002
      7.84500092e-002 3.36540528e-002 5.39990187e-001 2.41975300e-002
      2.10899264e-001 7.22980350e-002 2.48198003e-001 1.43588096e-001
      5.88550754e-002 1.27012879e-001 2.92742997e-002 5.39990187e-001
      1.12106791e-002 8.12341087e-003 1.40001010e-002 1.46106109e-001
      1.22191578e-001 1.67586450e-002 4.46070693e-002 1.58200762e-003
      9.86706913e-002 1.73639727e-003 3.27689499e-002 1.04101896e-002
      1.24047451e-001 1.00896992e-001 9.89781693e-003 2.31738891e-002
      1.46960258e-003 8.96962956e-002 2.01609428e-003 4.34654318e-002
      1.26266945e-002 9.70073566e-002 3.06641519e-001 7.03280047e-002
      1.91784427e-001 2.40246952e-002 4.96519715e-001 2.22657025e-002
      1.41615734e-001 4.58555259e-002 3.09632033e-001 2.49860197e-001
      3.93355936e-002 9.15895179e-002 1.32890632e-002 4.96519715e-001
      2.74109095e-002 1.89110756e-001 6.41882941e-002 2.45158255e-001
      1.97770316e-002 4.49083513e-003 4.26972704e-003 1.22360012e-003
      5.01792058e-002 3.06489994e-003 1.24035142e-002 3.92600661e-003
      1.52086169e-002 2.10269630e-001 3.77054177e-002 1.09802924e-001
      7.48350890e-003 3.25549513e-001 7.58929830e-003 4.36946936e-002
      1.56856943e-002 1.98567480e-001 4.15399149e-002 1.51357772e-002
      9.43007227e-003 6.47664350e-003 4.43597019e-001 2.30160598e-002
      5.17960675e-002 2.57732142e-002 4.03656736e-002 3.09463918e-001
      8.57229456e-002 2.42169678e-001 5.77079989e-002 5.60662091e-001
      5.31733036e-002 9.73529592e-002 3.82770188e-002 2.96808600e-001
      2.39563379e-002 5.47094690e-003 7.52146682e-003 1.59121808e-002
      3.40709895e-001 1.66319739e-002 2.43415982e-002 9.93796811e-003
      2.15571225e-002 2.21169665e-002 1.16886962e-002 2.20967568e-002
      1.38868224e-002 3.40709895e-001 1.32880565e-002 4.06124676e-003
      7.02426210e-003 2.19285972e-002 2.84880310e-001 1.83378707e-003
      2.13337317e-003 1.78713147e-002 3.40709895e-001 1.92547757e-002
      2.77278900e-001 9.57099423e-002 2.77047396e-001 3.40709895e-001
      6.61902204e-002 2.00089484e-001 1.37142185e-002 3.40709895e-001
      2.17577200e-002 7.13781118e-002 2.98785232e-002 3.40709895e-001
      3.75541449e-002 1.42896743e-002 3.61413285e-002 2.07992457e-002
      4.32889998e-001 2.28226911e-002 2.62105092e-002 1.00242635e-002
      3.72992568e-002 3.63750309e-002 8.68061930e-003 1.66308451e-002
      1.39231747e-002 4.32889998e-001 1.89222004e-002 3.74611802e-002
      1.48320822e-002 3.27864327e-002 1.22486562e-001 6.84913546e-002
      2.04661980e-001 2.19731573e-002 4.32889998e-001 2.71516535e-002
      6.48962855e-002 2.17048749e-002 1.21735327e-001 2.21129969e-001
      1.85109675e-002 4.04904373e-002 1.58947892e-002 4.32889998e-001
      1.70093924e-002 2.39295036e-001 7.33887851e-002 1.96848586e-001
      1.58767682e-002 4.53711161e-003 3.49464756e-003 5.96709782e-003
      2.45206431e-001 8.12403392e-003 1.03014903e-002 7.29340734e-003
      1.18981656e-002 2.87344605e-002 1.15857441e-002 2.90376209e-002
      2.42548212e-002 3.91780108e-001 1.98395457e-002 9.41481348e-003
      4.46185563e-003 2.77841166e-002 3.91780108e-001 1.73534732e-002
      4.09797430e-002 9.59695876e-003 1.93410322e-001 5.39723039e-003
      1.26062959e-001 4.17056158e-002 3.86964470e-001 2.75529057e-001
      1.13401547e-001 3.23936373e-001 1.64834280e-002 3.91780108e-001
      1.45131480e-002 3.13622528e-003 2.80860835e-003 2.64648497e-001
      3.29750896e-001 5.14450017e-004 6.91568770e-004 4.40003211e-003
      1.85723647e-001 4.83661052e-003 2.30269223e-001 7.67942369e-002
      3.29750896e-001 3.29750896e-001 4.24199812e-002 1.33092538e-001
      4.24677180e-003 7.28971288e-002 5.68731502e-003 5.10581620e-002
      1.77506767e-002 3.29750896e-001 3.29750896e-001 8.03607865e-004
      2.65634549e-003 2.35051126e-003 1.52213769e-002 1.44393730e-003
      6.85470253e-002 2.28336006e-002 3.29750896e-001 3.29750896e-001
      2.39142193e-003 7.43271783e-003 1.31850562e-003 3.14980163e-003
      8.69794865e-004 4.46608011e-003 1.48766767e-003 3.29750896e-001
      3.15034360e-001 6.01469167e-002 1.85828775e-001 6.62603788e-003
      2.50846893e-001 7.81719852e-003 5.14559075e-002 1.58241801e-002
      3.15034360e-001 3.15034360e-001 1.37710087e-002 3.40512171e-002
      6.14698883e-003 2.11880043e-001 4.94057871e-003 2.19068542e-001
      6.53125271e-002 3.15034360e-001 3.15034360e-001 2.88869906e-003
      9.06107016e-003 3.66732915e-004 2.28218711e-003 8.31198122e-004
      1.77861727e-003 4.67666483e-004 3.15034360e-001 3.15034360e-001
      7.62524083e-004 1.67251530e-003 1.04496349e-003 2.63373554e-003
      5.07086283e-004 1.09092537e-002 3.16581759e-003 3.15034360e-001
      3.21320146e-001 1.06146373e-002 2.80683096e-002 4.46647126e-003
      3.23955081e-002 1.92708930e-003 8.67323801e-002 2.70265993e-002
      3.21320146e-001 3.21320146e-001 9.60410237e-002 2.75529981e-001
      5.95911127e-003 2.53936619e-001 3.68432375e-003 2.10544211e-003
      1.96710811e-003 3.21320146e-001 3.21320146e-001 1.96303544e-003
      4.55921097e-003 2.46425695e-003 3.30043002e-003 9.06398112e-004
      5.35964500e-003 1.74771948e-003 3.21320146e-001 3.21320146e-001
      3.46876942e-002 9.39726979e-002 3.36719863e-003 2.76299454e-002
      3.47653218e-003 2.41104583e-003 2.60956399e-003 3.21320146e-001</_>
    <_>
      2.12364003e-001 7.28506520e-002 7.42886290e-002 9.11947861e-002
      8.13428015e-002 1.14253806e-002 6.09982153e-003 2.50012707e-002
      2.06310451e-001 1.94586650e-001 4.00383621e-002 3.86919826e-002
      3.77872624e-002 1.36570424e-001 4.80570011e-002 2.67675072e-002
      5.51427118e-002 2.00468048e-001 2.61379957e-001 2.61379957e-001
      2.61379957e-001 2.21935987e-001 2.61379957e-001 2.03410555e-002
      7.86224753e-003 3.34635265e-002 2.61379957e-001 2.61379957e-001
      2.61379957e-001 2.55332977e-001 1.83456048e-001 2.61379957e-001
      6.92291707e-002 3.48474160e-002 7.27433562e-002 2.61379957e-001
      7.33210519e-002 4.99004778e-003 1.77178923e-002 1.58607904e-002
      1.25306711e-001 3.86076458e-002 2.22871006e-002 2.59062089e-002
      8.00211579e-002 4.73785326e-002 4.82820086e-002 6.49482608e-002
      5.21801673e-002 1.68698877e-001 2.98295189e-002 2.47224867e-002
      1.00073908e-002 5.21221720e-002 3.08987767e-001 1.69697315e-001
      2.37230167e-001 2.74459660e-001 3.08987767e-001 1.05955832e-001
      5.66972569e-002 1.01236999e-001 3.08987767e-001 3.08987767e-001
      7.48854950e-002 8.99171680e-002 1.06144674e-001 3.08987767e-001
      2.50618517e-001 2.11492702e-001 1.77358255e-001 3.08987767e-001
      1.49889961e-001 9.50007811e-002 9.76663679e-002 5.80827743e-002
      1.82398677e-001 3.94788086e-002 5.62218763e-002 4.77771871e-002
      1.70053273e-001 2.57161021e-001 6.83968142e-002 5.54822758e-002
      2.70681530e-002 1.17886491e-001 7.96657279e-002 2.29369193e-001
      1.39848009e-001 2.57161021e-001 1.91537604e-001 5.12381643e-002
      1.01949759e-001 1.07798919e-001 2.57161021e-001 1.10827483e-001
      1.95449367e-001 1.80304736e-001 2.57161021e-001 2.57161021e-001
      3.94945629e-002 1.06410854e-001 1.52380437e-001 2.57161021e-001
      8.55981484e-002 2.57161021e-001 2.57161021e-001 2.57161021e-001
      2.24381760e-001 1.39025241e-001 1.18761495e-001 5.73080704e-002
      2.68225878e-001 4.12596874e-002 1.87305640e-002 3.44320759e-002
      1.83301419e-001 2.68225878e-001 1.69179976e-001 1.64211318e-001
      1.30906194e-001 2.68225878e-001 2.44936962e-002 1.11262966e-002
      1.93829462e-002 2.26791605e-001 2.68225878e-001 4.40657251e-002
      4.38919384e-003 6.36885641e-003 2.68225878e-001 1.22087248e-001
      5.90659939e-002 1.50290176e-001 2.68225878e-001 2.68225878e-001
      2.37493202e-001 1.46024376e-001 1.06298447e-001 1.96348503e-001
      2.43942551e-002 1.23984758e-002 3.59087922e-002 2.68225878e-001
      2.34101519e-001 8.91882107e-002 1.38189092e-001 1.77641287e-001
      2.48325929e-001 4.24379893e-002 3.63021269e-002 3.18768807e-002
      2.24806905e-001 2.48325929e-001 2.64596697e-002 2.86008213e-002
      4.91443314e-002 2.48325929e-001 1.46831349e-001 1.62350386e-001
      8.05964097e-002 2.48325929e-001 2.48325929e-001 2.02357426e-001
      1.80132642e-001 1.76389813e-001 2.48325929e-001 3.83947231e-002
      9.27602947e-002 3.60758416e-002 2.48325929e-001 2.48325929e-001
      3.85680869e-002 2.71361768e-002 4.33717705e-002 1.74598396e-001
      1.08206458e-001 2.17147470e-001 8.21907744e-002 2.48325929e-001
      2.71749347e-001 1.81591548e-002 1.01876035e-001 8.23969319e-002
      2.14898780e-001 6.81396797e-002 1.20011978e-001 7.13647082e-002
      2.71749347e-001 2.01425910e-001 7.23320693e-002 2.67823189e-001
      1.87104285e-001 2.71749347e-001 9.56127793e-003 7.27698132e-002
      7.61117786e-002 2.09599376e-001 2.71749347e-001 6.00479171e-002
      1.11281179e-001 5.07749282e-002 5.87681122e-002 3.64205316e-002
      7.32925460e-002 2.72653401e-002 2.71749347e-001 2.71749347e-001
      2.30230346e-001 2.71749347e-001 1.44308314e-001 8.78545269e-002
      2.73062126e-003 2.02619284e-003 2.79213767e-003 2.71749347e-001
      3.88042212e-001 3.72299924e-002 4.63206042e-003 2.96081975e-003
      1.50292590e-001 1.94175035e-001 9.26117972e-002 2.36688808e-001
      3.88042212e-001 3.88042212e-001 3.88042212e-001 1.80971131e-001
      8.72502476e-002 1.12556785e-001 2.21398063e-002 1.05625559e-002
      5.03011793e-002 3.88042212e-001 1.03048757e-001 1.82306592e-003
      2.33327062e-003 7.04041333e-004 7.90391117e-003 8.30885116e-003
      3.69719649e-003 8.97044130e-003 1.11533701e-001 1.35604620e-001
      2.17869133e-002 9.41210520e-003 7.01969780e-004 7.18879048e-003
      1.60105410e-003 8.41574336e-004 5.15523413e-003 1.35798305e-001
      3.50717932e-001 3.50717932e-001 2.86621273e-001 1.88731641e-001
      2.96892703e-001 3.59341651e-002 1.43672526e-001 6.44255280e-002
      3.50717932e-001 3.50717932e-001 6.66353106e-002 4.26229052e-002
      4.78219613e-002 1.97413146e-001 7.47336596e-002 2.57888526e-001
      1.28124878e-001 3.50717932e-001 6.86253384e-002 2.34900266e-002
      1.13224676e-002 5.35871193e-004 9.39757191e-003 8.49285105e-004
      3.00840358e-003 3.24338931e-003 6.37164190e-002 4.31701802e-002
      4.00098972e-003 2.24162359e-003 3.12480517e-003 4.75973310e-003
      1.61977822e-003 6.42492063e-003 2.78048962e-003 4.39293608e-002
      4.04484510e-001 1.13093525e-001 9.82546806e-002 4.63373810e-002
      3.19398902e-002 2.30899174e-002 6.29231930e-002 3.97759601e-002
      4.04484510e-001 4.04484510e-001 3.41961741e-001 4.04484510e-001
      1.36156455e-001 5.64723089e-002 1.28653944e-002 8.09829682e-003
      1.07554235e-002 4.04484510e-001 4.99945059e-002 3.02168168e-003
      8.46055627e-004 5.73501922e-003 2.65764259e-003 1.87682384e-003
      3.32920416e-003 2.78814323e-003 5.25200479e-002 2.70965919e-002
      1.33609166e-003 8.27052805e-004 1.72293186e-003 4.96784737e-003
      5.00738854e-003 2.52179499e-003 4.50485200e-003 3.28034721e-002</_>
    <_>
      1.35637358e-001 5.20876274e-002 1.55248508e-001 5.58528642e-004
      3.30872312e-002 4.76959627e-004 2.35982127e-002 8.99702776e-003
      1.37726113e-001 1.26420364e-001 2.47592032e-002 7.11837113e-002
      1.22876291e-003 1.17460854e-001 2.23900122e-003 5.11636026e-002
      1.96423288e-002 1.27584875e-001 3.07476908e-001 3.07476908e-001
      3.07476908e-001 5.30313561e-003 2.54811019e-001 2.45593651e-003
      5.22366278e-002 2.23206170e-002 3.07476908e-001 3.07476908e-001
      1.91663608e-001 3.07476908e-001 8.32382869e-003 3.07476908e-001
      7.06272386e-003 1.13595590e-001 4.45193574e-002 3.07476908e-001
      7.65079036e-002 4.30157408e-003 1.01147620e-002 1.15197315e-003
      1.72573462e-001 5.02265152e-003 5.11638783e-002 2.38169320e-002
      7.91217014e-002 1.61174368e-002 3.02302814e-003 2.43604742e-003
      1.55272218e-003 1.76888585e-001 3.98018723e-003 4.74755839e-003
      2.85208691e-003 1.58396158e-002 3.18395048e-001 1.99781641e-001
      3.18395048e-001 1.43718896e-002 3.18395048e-001 2.44517978e-002
      2.61984944e-001 1.11045569e-001 3.18395048e-001 3.18395048e-001
      5.79351783e-002 1.36198536e-001 4.04183846e-003 3.18395048e-001
      2.38492843e-002 2.39139095e-001 9.34621394e-002 3.18395048e-001
      9.20392051e-002 2.01587807e-002 6.04905784e-002 2.27120658e-003
      2.09434763e-001 1.52867776e-003 9.85721126e-002 3.20725366e-002
      8.53416771e-002 2.71417320e-001 2.80642621e-002 7.99889490e-002
      4.82832687e-003 1.94273949e-001 1.75801176e-003 3.26966286e-001
      1.46593377e-001 2.47263700e-001 5.95654994e-002 1.82980914e-002
      4.87633012e-002 4.89869714e-003 2.84991294e-001 5.31180762e-003
      3.26966286e-001 1.15236677e-001 5.72901443e-002 2.04289883e-001
      2.43949890e-002 6.42274916e-002 1.01917665e-002 3.26966286e-001
      4.32135351e-003 3.26966286e-001 3.26966286e-001 1.89314932e-001
      9.65708718e-002 1.74176127e-001 3.03467214e-001 9.51649249e-003
      3.03467214e-001 4.74209106e-003 1.63666438e-002 8.53346754e-003
      1.01053067e-001 1.07403047e-001 1.52265623e-001 3.03467214e-001
      8.76587350e-003 3.03467214e-001 4.55244770e-003 2.21081059e-002
      9.68308933e-003 1.08459026e-001 1.08334266e-001 3.71224545e-002
      1.11392885e-001 8.87345895e-003 3.03467214e-001 9.38671734e-003
      3.03467214e-001 1.05227396e-001 1.05126642e-001 1.79310486e-001
      1.80589393e-001 3.03467214e-001 7.37765105e-003 3.03467214e-001
      1.24450689e-002 1.21822439e-001 4.01391611e-002 1.83020741e-001
      1.42497554e-001 1.01635031e-001 2.74815381e-001 7.88034778e-003
      2.74815381e-001 5.20549947e-003 1.24674991e-001 4.57834452e-002
      1.46805912e-001 1.27888918e-001 2.59022061e-002 7.56438524e-002
      5.43590030e-003 2.74815381e-001 7.06481794e-003 2.35382676e-001
      8.47406611e-002 1.35797411e-001 1.49551719e-001 1.71822533e-001
      2.74815381e-001 9.27037653e-003 2.74815381e-001 1.26334978e-002
      1.71519637e-001 6.08260110e-002 1.55994162e-001 2.74815381e-001
      2.49243844e-002 7.18722045e-002 7.18561839e-003 2.74815381e-001
      1.03957569e-002 2.74815381e-001 1.68039948e-001 2.74815381e-001
      3.51106487e-002 1.76189858e-002 4.53798957e-002 4.07637097e-003
      1.28022730e-001 5.51015278e-003 1.99530259e-001 6.86166808e-002
      3.86654250e-002 2.82656904e-002 8.27072635e-002 2.24251509e-001
      7.36708287e-003 3.01329523e-001 1.08651239e-002 3.01329523e-001
      1.82203323e-001 2.52125561e-002 3.01329523e-001 7.78502226e-002
      2.33494610e-001 2.35197204e-003 1.30409330e-001 7.60140130e-003
      2.73036957e-001 9.73496512e-002 3.01329523e-001 1.65917814e-001
      3.01329523e-001 3.01329523e-001 5.22092497e-003 2.68526256e-001
      1.20710526e-002 6.25875965e-002 2.44220216e-002 1.67942867e-001
      2.61300355e-001 2.57001966e-002 7.11777061e-002 2.66907807e-003
      2.12984920e-001 4.23818175e-003 2.67226607e-001 1.86474040e-001
      2.53295571e-001 2.67226607e-001 1.94498643e-001 2.67226607e-001
      1.87514618e-003 1.45740792e-001 6.91812811e-003 1.71765774e-001
      5.66383712e-002 2.67226607e-001 2.09727630e-001 2.15064939e-002
      5.68036884e-002 1.97855174e-003 1.21097835e-002 1.47232809e-003
      2.67226607e-001 9.79237631e-002 2.04062596e-001 2.67226607e-001
      1.01154506e-001 2.67226607e-001 1.34451676e-003 6.08635508e-003
      2.29708012e-003 7.66829252e-002 2.60332003e-002 2.67226607e-001
      2.70660698e-001 1.77750394e-001 2.70660698e-001 2.25589145e-003
      1.49047285e-001 8.14376213e-003 2.48640552e-001 8.67298096e-002
      2.70660698e-001 2.70660698e-001 2.43299827e-002 7.11457357e-002
      1.92666089e-003 1.05310358e-001 5.02289040e-003 2.70660698e-001
      1.92384571e-001 2.70660698e-001 1.69817328e-001 8.22549090e-002
      2.39887893e-001 2.21502362e-003 5.95393032e-003 2.33835890e-003
      1.42499387e-001 4.92598303e-002 1.74749583e-001 2.70660698e-001
      1.27808321e-002 3.34162898e-002 2.91999802e-003 7.75530888e-003
      2.28916737e-003 2.70660698e-001 1.14674523e-001 2.70660698e-001
      2.91267484e-001 6.52824044e-002 1.98040113e-001 9.38747951e-004
      2.51024123e-002 3.16860341e-003 2.50066608e-001 8.37893710e-002
      2.91267484e-001 2.61499345e-001 2.91267484e-001 2.91267484e-001
      3.65372887e-003 1.45682804e-002 3.67116230e-003 2.15007700e-002
      8.79542716e-003 2.70968854e-001 2.91267484e-001 3.63369659e-002
      1.09340772e-001 1.13481993e-003 5.01836184e-003 2.54738098e-003
      1.43953949e-001 4.60611358e-002 2.91267484e-001 2.14583442e-001
      1.23614222e-001 2.91267484e-001 2.13692198e-003 5.72341401e-003
      4.75245435e-003 9.25952662e-003 5.01484424e-003 2.22082302e-001</_>
    <_>
      1.70551956e-001 2.04137102e-001 2.67080486e-001 6.78994646e-003
      4.02709246e-002 2.65548993e-002 4.98700105e-002 1.24487253e-002
      1.40832976e-001 1.62534326e-001 8.08573812e-002 1.30095065e-001
      2.22088452e-002 1.58103943e-001 1.08565904e-001 1.35906383e-001
      2.76354793e-002 1.49695754e-001 2.67080486e-001 2.67080486e-001
      2.67080486e-001 3.12172510e-002 2.67080486e-001 3.12175211e-002
      5.92867546e-002 1.56710800e-002 2.13689253e-001 2.50070125e-001
      2.67080486e-001 2.67080486e-001 1.36587903e-001 2.67080486e-001
      1.14429444e-001 1.30963385e-001 2.36790720e-002 1.97221488e-001
      7.08699077e-002 1.52077004e-002 3.78421620e-002 1.58796813e-002
      1.23463683e-001 7.19009414e-002 8.37390423e-002 1.72750130e-002
      6.84591159e-002 7.34838247e-002 9.08667296e-002 6.16117343e-002
      8.38240050e-003 1.39721826e-001 6.89138845e-003 9.96994972e-002
      3.65572721e-002 5.95962182e-002 1.97117433e-001 2.89542407e-001
      2.89542407e-001 2.21871912e-001 2.89542407e-001 1.13394141e-001
      2.89542407e-001 1.00965649e-001 1.83032855e-001 1.85346916e-001
      1.57957897e-001 2.64185101e-001 5.30603826e-002 2.82895505e-001
      1.57754242e-001 2.89542407e-001 2.73113221e-001 1.74950093e-001
      1.86595991e-001 1.54564843e-001 7.22218826e-002 7.32763344e-003
      1.22070789e-001 3.83663503e-003 1.66400269e-001 6.79340884e-002
      1.73362374e-001 2.60185391e-001 9.18547437e-002 3.35394479e-002
      3.39586893e-003 5.92134446e-002 1.62614696e-002 2.60185391e-001
      2.44463637e-001 2.60185391e-001 1.72825918e-001 1.05842985e-001
      1.01799622e-001 5.57200871e-002 2.10833073e-001 3.67828645e-002
      2.60185391e-001 1.81875169e-001 1.64735869e-001 2.28815600e-001
      7.81933591e-002 9.74069089e-002 1.12350456e-001 2.60185391e-001
      1.81063712e-002 2.60185391e-001 2.60185391e-001 2.60185391e-001
      1.85111210e-001 1.47556484e-001 1.47554457e-001 1.66027118e-002
      2.44833872e-001 1.35510955e-002 1.44695565e-001 5.01747429e-002
      1.55111000e-001 2.44833872e-001 2.33806759e-001 2.44833872e-001
      9.51214880e-002 2.44833872e-001 1.42215351e-002 8.17968547e-002
      2.58039627e-002 2.23348513e-001 2.44833872e-001 1.29576996e-002
      2.22630184e-002 4.26981831e-003 1.64449632e-001 5.26085086e-002
      2.44833872e-001 1.72561228e-001 2.44833872e-001 2.44833872e-001
      2.44833872e-001 2.44833872e-001 3.56978290e-002 9.40916836e-002
      7.25092692e-003 1.33029580e-001 5.55347167e-002 2.44833872e-001
      1.24439903e-001 1.80453539e-001 2.60488898e-001 1.35010168e-001
      2.60488898e-001 3.36708389e-002 1.40334398e-001 4.13876697e-002
      1.17149293e-001 1.38603121e-001 5.76051511e-002 1.10001855e-001
      3.28414813e-002 1.58106968e-001 1.05283618e-001 2.60488898e-001
      1.53104514e-001 1.38929635e-001 2.48137757e-001 2.60488898e-001
      2.60488898e-001 5.92980981e-002 1.93225801e-001 1.18107386e-002
      1.06377803e-001 3.39418352e-002 2.25633994e-001 2.60488898e-001
      7.45122358e-002 1.35706276e-001 1.57697443e-002 1.91904917e-001
      3.07026152e-002 2.60488898e-001 9.77582261e-002 2.60488898e-001
      2.03634232e-001 8.12276304e-002 1.48044720e-001 5.78292906e-002
      1.13757312e-001 4.32146452e-002 2.75575519e-001 1.06015213e-001
      1.90085411e-001 1.75068468e-001 1.32526457e-001 2.75575519e-001
      1.39598295e-001 2.75575519e-001 5.79126785e-003 1.41263828e-001
      6.24752343e-002 1.38965741e-001 2.75575519e-001 1.05099842e-001
      1.45571366e-001 1.51080918e-002 5.15666381e-002 1.36215640e-002
      1.42399624e-001 4.50091101e-002 2.75575519e-001 2.75575519e-001
      2.75575519e-001 2.75575519e-001 5.21351695e-002 8.35315734e-002
      4.20510070e-003 4.65804525e-003 3.35489190e-003 2.75575519e-001
      3.23755324e-001 3.00002769e-002 5.46097755e-002 4.49181208e-003
      5.69109768e-002 7.30499625e-002 3.23755324e-001 3.00755680e-001
      3.23755324e-001 3.23755324e-001 3.23755324e-001 3.23755324e-001
      1.50465975e-002 1.73173621e-002 6.81153731e-003 2.02851474e-001
      9.33813080e-002 3.23755324e-001 1.27690166e-001 6.06292579e-003
      1.22224558e-002 4.53003362e-004 6.15808042e-003 1.36149779e-003
      7.40012527e-002 3.11628561e-002 1.24459982e-001 1.72732756e-001
      4.36207168e-002 8.77728313e-002 1.75493216e-004 3.17662419e-003
      1.45259328e-004 4.00559641e-002 1.53489094e-002 1.72936603e-001
      3.55160087e-001 3.55160087e-001 3.55160087e-001 3.31892446e-002
      1.82526946e-001 5.09383343e-003 1.35051519e-001 4.46560904e-002
      3.55160087e-001 3.55160087e-001 1.13410793e-001 1.73276559e-001
      1.12293344e-002 2.41449252e-001 8.00343044e-003 2.42544815e-001
      7.95281008e-002 3.55160087e-001 6.69067949e-002 3.81682143e-002
      6.68286830e-002 5.84899681e-004 5.72834304e-003 3.41361127e-004
      3.03062843e-004 1.05391350e-003 6.82018548e-002 3.87242958e-002
      2.30134698e-003 4.32382291e-003 3.25685076e-004 7.05029815e-003
      2.45640753e-003 1.40649185e-003 2.71252403e-003 4.17310074e-002
      4.01076227e-001 1.24375477e-001 9.14806202e-002 5.64687280e-003
      6.18914589e-002 9.73739568e-003 5.92761971e-002 2.15623379e-002
      4.01076227e-001 4.01076227e-001 3.86205673e-001 4.01076227e-001
      2.45364178e-002 5.66402227e-002 1.04113827e-002 5.72659355e-003
      4.82188212e-003 4.01076227e-001 4.75556329e-002 8.45119066e-004
      2.53218622e-003 3.30124385e-005 7.39946635e-003 3.74564808e-003
      1.66301522e-003 2.33965577e-003 5.15664518e-002 2.83837151e-002
      6.99050725e-004 1.91337778e-003 3.71707400e-004 4.67019808e-003
      2.67662411e-003 2.09806114e-003 9.87375854e-004 3.05003747e-002</_>
    <_>
      3.28573175e-002 3.47617939e-002 1.02474824e-001 1.57076307e-003
      4.89562377e-003 4.51774686e-004 2.60299246e-004 3.38973390e-004
      3.31116691e-002 1.34571627e-001 1.82654202e-001 3.51181358e-001
      3.54435667e-003 8.14440660e-003 7.45814119e-004 1.09072262e-003
      1.63971027e-003 1.41280711e-001 2.37282634e-001 2.12646872e-001
      3.51181358e-001 3.87686631e-003 6.23710938e-002 2.14554835e-003
      1.81188341e-003 2.83301779e-004 2.37485081e-001 3.51181358e-001
      3.51181358e-001 3.51181358e-001 1.60764961e-003 9.61425602e-002
      2.36894167e-003 2.11724848e-003 1.79452705e-003 3.51181358e-001
      1.55526534e-001 1.48019493e-001 3.06859076e-001 3.25293094e-003
      3.94030251e-002 1.94368139e-003 1.69747684e-003 1.87849835e-003
      1.67251512e-001 1.99997902e-001 9.19184759e-002 2.80913621e-001
      8.65747966e-003 3.06859076e-001 6.54874509e-003 3.96952033e-002
      1.87134966e-002 2.12962195e-001 2.93307602e-001 1.95507810e-001
      3.06859076e-001 4.28004749e-003 1.75757408e-001 5.07134013e-003
      1.61563721e-003 1.72264699e-003 3.03582281e-001 1.82493463e-001
      7.40796924e-002 2.19228625e-001 1.67885441e-002 3.06859076e-001
      1.68593191e-002 2.16163602e-002 9.26331803e-003 1.85888514e-001
      1.69956788e-001 2.49105375e-002 7.56986812e-002 1.83022786e-002
      4.47065890e-001 1.16577959e-002 9.17233750e-002 4.22298983e-002
      1.78076744e-001 1.19023416e-002 2.22610543e-003 4.17830423e-003
      5.17862989e-003 1.65062934e-001 2.66975141e-003 7.36594433e-003
      3.33692809e-003 1.02029238e-002 2.44300053e-001 2.01549158e-002
      5.62985763e-002 3.05347927e-002 4.47065890e-001 2.47874949e-002
      7.65960291e-002 2.85400283e-002 2.40398392e-001 3.96428496e-001
      5.78170596e-003 7.16394139e-003 1.33286770e-002 2.27967799e-001
      3.98413464e-003 3.29229683e-002 1.18922740e-002 3.88154626e-001
      3.07048917e-001 1.12871051e-001 3.07048917e-001 2.36499053e-003
      8.46317410e-002 1.55919290e-003 1.18299918e-002 4.24679136e-003
      3.07048917e-001 3.07048917e-001 1.31313100e-001 3.07048917e-001
      5.55926468e-004 1.17968857e-001 1.35237456e-003 9.82300611e-004
      8.49208329e-004 3.07048917e-001 3.07048917e-001 9.73388832e-003
      2.72215549e-002 2.86996015e-003 2.84871012e-002 1.87507318e-003
      1.54807474e-002 6.81972411e-003 3.07048917e-001 3.07048917e-001
      3.73664801e-003 1.11056725e-002 6.56917982e-004 2.87370179e-002
      7.15610047e-004 2.20385278e-004 4.41623561e-004 3.07048917e-001
      3.03383797e-001 6.94942474e-002 2.15917051e-001 1.57155271e-003
      1.29368082e-001 2.51246570e-003 1.25317713e-002 4.80974512e-003
      3.03383797e-001 2.99836934e-001 3.40953916e-002 1.03282958e-001
      7.36647565e-003 3.03383797e-001 1.06270686e-002 5.67608066e-002
      2.00714506e-002 3.03383797e-001 3.03383797e-001 3.06752906e-003
      9.61055886e-003 9.75837407e-004 1.67120770e-001 1.17518567e-003
      3.17321271e-002 1.04040038e-002 3.03383797e-001 2.61400551e-001
      2.18757316e-002 6.25462160e-002 4.83670365e-003 3.03383797e-001
      7.27598462e-003 8.70973766e-002 2.89113596e-002 2.61553973e-001
      3.10770184e-001 1.56490970e-002 4.49026674e-002 6.81476016e-003
      3.10770184e-001 8.40084348e-003 6.27175942e-002 2.19695065e-002
      3.10770184e-001 3.10770184e-001 8.97827744e-003 2.12550685e-002
      3.19598382e-003 6.69509396e-002 1.32828858e-003 3.26654501e-002
      1.22050401e-002 3.10770184e-001 3.10770184e-001 3.00979745e-002
      8.27134177e-002 5.44326706e-003 3.10770184e-001 8.03725515e-003
      3.72065678e-002 1.34287197e-002 3.10770184e-001 3.10770184e-001
      1.29855983e-002 3.33734713e-002 2.48360191e-003 8.42836574e-002
      4.72379802e-003 1.46862846e-002 6.32211799e-003 3.10770184e-001
      4.96437371e-001 2.07491759e-002 3.74206267e-002 2.30279062e-002
      3.02655343e-002 1.82252508e-002 5.28752841e-002 3.63543220e-002
      4.96437371e-001 4.96437371e-001 1.00953011e-002 1.34760961e-002
      3.92212812e-003 2.50683874e-002 3.06294672e-003 1.03896286e-003
      3.36417882e-003 4.96437371e-001 1.10580502e-002 6.65906910e-003
      1.22036263e-002 1.45617162e-003 4.86316206e-003 1.06268318e-003
      3.14832828e-003 6.35001203e-003 9.99470241e-003 1.99910044e-003
      2.95560714e-003 4.27847356e-003 6.61237427e-005 6.12613745e-003 0.
      1.04084713e-004 3.83284845e-004 2.07131403e-003 1.93375215e-001
      4.22808866e-004 1.05948339e-003 3.14959488e-003 4.14062709e-001
      2.91309319e-003 6.06911927e-002 1.95216052e-002 1.91513300e-001
      3.93213034e-001 5.71171157e-002 1.64798900e-001 1.60903186e-002
      4.32126015e-001 1.15998667e-002 2.21472025e-001 7.28558898e-002
      3.78388792e-001 2.25469191e-002 6.42645231e-004 7.26779748e-004
      3.57030920e-004 6.62125051e-002 7.82621151e-004 1.99686736e-002
      6.39357511e-003 2.09002942e-002 2.11689517e-001 2.27520224e-002
      6.52447790e-002 2.53766309e-003 2.68202782e-001 1.78088865e-003
      8.37401748e-002 2.70683579e-002 2.03310564e-001 4.15206641e-001
      8.82466212e-002 2.52377063e-001 2.13813875e-002 4.23980206e-001
      1.62697993e-002 1.08966008e-001 3.90088446e-002 4.07943070e-001
      2.88719028e-001 1.43336970e-002 3.65500264e-002 7.27679534e-003
      2.46640131e-001 1.56870317e-002 1.09851165e-002 6.12507993e-003
      2.95951337e-001 1.91240683e-001 3.13504301e-002 9.29123387e-002
      3.24362004e-003 2.66869634e-001 2.03167321e-003 4.55462299e-002
      1.50119588e-002 1.87355980e-001 1.93215273e-002 3.35230702e-003
      8.22533388e-003 5.29212819e-004 4.59260084e-002 2.24184548e-003
      3.37922573e-003 1.20128831e-003 2.03090925e-002</_>
    <_>
      3.47834140e-001 6.89686462e-003 1.59066748e-002 1.19581574e-003
      1.37216132e-002 3.01706779e-004 1.14212520e-002 4.91320528e-003
      3.47834140e-001 3.47834140e-001 1.81216194e-004 5.14711544e-004
      1.18380180e-004 6.20391080e-003 2.36185704e-004 3.67302634e-002
      1.26617430e-002 3.47834140e-001 3.47834140e-001 3.09609110e-003
      7.05551868e-003 1.00193697e-003 1.27231274e-002 1.03295001e-003
      1.68428775e-002 6.61204569e-003 3.47834140e-001 3.47834140e-001
      7.82946358e-004 1.85882638e-003 1.11784320e-003 1.24703757e-001
      2.09071045e-003 9.61552411e-002 3.26415524e-002 3.47834140e-001
      3.44633073e-001 8.56035695e-005 4.56726411e-004 1.19052548e-003
      1.10725254e-001 4.54330962e-004 1.85981274e-001 6.37375638e-002
      3.44633073e-001 1.25573248e-001 1.15626724e-003 4.15628916e-003
      5.73480641e-003 2.94703096e-001 9.97519935e-004 2.17820108e-001
      7.80438408e-002 1.25047326e-001 2.93869495e-001 7.12333363e-004
      1.32028887e-003 2.54545244e-003 3.44633073e-001 3.08183045e-003
      2.74015576e-001 9.12932754e-002 2.91283011e-001 4.81924750e-002
      6.57267403e-004 9.85766528e-004 4.85087885e-003 3.44633073e-001
      1.91758655e-003 1.88078120e-001 6.38948083e-002 4.75564227e-002
      7.40644410e-002 1.75586920e-002 4.34037335e-002 3.27843986e-002
      6.17778122e-001 9.56091844e-003 3.76486152e-001 1.46695510e-001
      5.42736501e-002 2.34551709e-002 7.23842904e-003 1.31607102e-002
      2.93560396e-003 2.08643097e-002 4.84856358e-003 1.56128511e-003
      4.20302711e-003 1.73444469e-002 2.64518987e-002 7.86807574e-003
      1.21775474e-002 1.67807713e-002 6.17778122e-001 4.52147610e-003
      2.14086801e-001 7.66596720e-002 1.49937486e-002 1.09359324e-002
      2.89060338e-003 5.82027948e-003 6.87695458e-004 2.32358091e-002
      1.11889921e-003 4.68956161e-004 2.95388076e-004 8.17219540e-003
      2.09378377e-001 1.31838105e-003 3.23246303e-003 2.05718214e-003
      7.78555451e-003 2.25590123e-003 7.50792539e-003 4.04491462e-003
      2.14491576e-001 2.17975527e-001 1.54063497e-002 4.55669314e-002
      4.40397393e-003 2.79784113e-001 2.85294047e-003 3.96237671e-002
      1.40122706e-002 2.17339486e-001 4.13453072e-001 9.17291455e-003
      2.81182732e-002 3.61787924e-003 2.55734250e-002 2.71450542e-003
      1.57106034e-002 7.62944669e-003 4.13453072e-001 4.13453072e-001
      4.75002863e-002 1.46780372e-001 5.09051234e-003 1.38650268e-001
      8.45470408e-004 6.64648367e-003 2.98094959e-003 4.13453072e-001
